tree
version=v4
num_class=1
num_tree_per_iteration=1
label_index=0
max_feature_idx=34
objective=binary sigmoid:1
feature_names=speed_index last3f_index jockey_index rotation_index last_margin_index distance head_count is_turf is_dirt is_good is_heavy is_bad frame_number horse_age weight_carried horse_weight weight_change improving_form track_win_rate class_drop_ratio prev_pace_ratio kc_sp_z nk_idx_z kc_rank_n nk_rank_n ext_missing pace_x_wet horse_wet_apt horse_wet_apt_active horse_wet_runs odds_rank_n speed_mkt_gap kc_mkt_gap is_heavy_fav is_dark_horse
feature_infos=[0:96.590020645782957] [0:81.84202546648649] [26:100] [20:95] [14.066284760417261:76.923292125952116] [800:2600] [6:16] [0:1] [0:1] [0:1] [0:1] [0:1] [1:8] [2:17] [48:60] [329:634] [-51:999] [-1:1] [-1:1] [-0.99119999999999997:5] [-1:1] [-3.5597120806610723:3.2198248283159838] [-3.326903682352897:3.0063785719209428] [0:1] [0:1] [0:1] [0:3] [-0.64483047816381145:0.6629188712522045] [-0.60606060606060608:0.63551587301587298] [0:1] [0:1] [-0.9375:0.9375] [-0.93333333333333335:0.9285714285714286] [0:1] [0:1]
tree_sizes=3418 3506 3506 3509 3521 3417 3504 3497 3520 3505 3520 3535 3520 3533 3516 3541 3519 3514 3511 3530 3521 3512 3521 3502 3525 3528 3513 3518 3535 3549 3538 3543 3502 3541 3548 3536 3543 3539 3430 3529 3542 3550 3551 3519 3546 3405 3514 3440 3321 3390 3528 3516 3556 3554 3533 3441 3522 3321 3521 3532 3546 3564 3519 3505 3529 3520 3542 3536 3512 3323 3329 3532 3303 3525 3503 3518 3537 3206 3541 3520 3305 3407 3311 3209 3208 2880 3188 3407 3093 3290 3505 3524 3534 3532 3525 3513 3305 3385 3518 2958 3499 3412 3486 3499 3528 3511 3212 2968 3502 3064 3184 3071 3178 2874 2956 2857 3398 3312 3293 3182 3408 3495 3512 3298 3084 2537 2941 3066 3280 2512 3308 3527 3529 3423 3522 3328 3304 3396 3502 2010 2938 2541 3519 2661 2230 2987 2340 3289 2329 2167 3183 3185 3174 3450 3551 3291 3523 3201 2737 3399 3365 3101 3383 3275 3520 2784 2739 2515 3272 2841 2289 2210 2315 2308 2314 3411 3462 3495 3305 3176 3529 3391 3183 3203 2722 3510 3513 3525 3180 3502 2958 3295 2953 3465 2917 3374 3168 2971 3172 3244 3393 3286 3285 3274 3489 2739 3406 3273 3498 2964 3108 2087 3200 2184 1861 3530 2652 3510 3544 2876 3140 2610 3046 2946 3416 2435 2557 2638 2446 2516 3460 3368 2943 3056 3480 3164 2858 2977 3248 2925 3298 3174 3548 3518 3200 3506 3519 3537 3413 3269 3178 3483 2648 1962 2653 3393 3182 3167 3306 3266 3294 3495 3530 2842 2638 3402 3526 3520 3280 3156 3178 2643 3398 3196 2624 3380 2945 3069 3185 3204 2850 3163 2861 2949 3460 3425 3395 3510 3409 3169 3405 2852 2859 3048 3032 3401 3105 3182 3529 3402 3547 2844 3512 3182 3407 3505 3068 3265 3157 3510 3510 3525 2733 3103 3526 3510 3395 2915 2635 2820 3171 2857 2842 3292 2451 2607 3034 3288 2652 2392 3387 3496 3289 3470 3505 3156 2537 2431 2637 2965 3353 2738 3527 2900 3436 3538 3275 3194 3045 2733 2329 2980 3386 2400 3497 2754 2756 3068 3398 3185 3171 3285 3146 3403 3243 3296 3506 3484 2721 2615 3407 3412 2306 3046 2184 3419 2763 3525 3408 2875 1766 2075 1976 2745 3481 3312 2649 3367 3065 2654 3051 3405 3181 2840 2871 2973 2973 2928 2940 2975

Tree=0
num_leaves=31
num_cat=0
split_feature=30 30 30 21 30 31 1 30 30 6 21 6 14 6 4 6 6 19 18 22 6 27 27 27 18 34 6 16 26 30
split_gain=37574.9 7244.52 1120.82 916.026 798.955 156.464 155.646 136.362 134.115 111.322 77.562 72.206 60.2869 59.8026 58.4909 54.2157 50.9593 48.1437 44.3799 57.7536 34.991 34.9825 32.3937 31.2963 30.3696 24.8113 24.5914 21.7458 17.1756 14.9168
threshold=1.0000000180025095e-35 0.22649572649572652 0.44949494949494956 1.3430380669392401 0.14835164835164838 -0.21825396825396826 57.420757810943051 0.63068181818181823 0.30384615384615393 9.5000000000000018 1.6765505825015115 8.5000000000000018 55.750000000000007 13.500000000000002 60.939544033193165 9.5000000000000018 11.500000000000002 0.73623188405797102 -1.0000000180025095e-35 0.062156238409208593 8.5000000000000018 0.10082371332371336 1.0000000180025095e-35 0.011196874175704809 0.19292803970223329 1.0000000180025095e-35 11.500000000000002 -1.0000000180025095e-35 1.6306818181818186 0.78174603174603186
decision_type=2 2 2 2 2 2 2 2 2 2 2 2 2 2 2 2 2 2 2 2 2 2 2 2 2 2 2 2 2 2
left_child=3 4 8 5 13 18 10 25 15 22 28 24 -11 17 23 -3 -12 -2 26 -20 -10 -16 -7 -8 -6 -4 -1 -13 -5 -9
right_child=1 2 7 6 11 9 14 29 20 12 16 27 -14 -15 21 -17 -18 -19 19 -21 -22 -23 -24 -25 -26 -27 -28 -29 -30 -31
leaf_value=-2.0420696147589918 -2.165828123729721 -2.2136110419438069 -2.2587834020607565 -2.0207441054527155 -2.1738442691756101 -2.0011267432969904 -1.9664493837979977 -2.2726370639068292 -2.2343854765104654 -2.0638365110232222 -1.9548514250522995 -2.2065521210214882 -2.0274275520956526 -2.1942763211795904 -1.913801151093709 -2.2355163119944708 -2.0225017139154104 -2.1353440914857327 -2.0996046171221034 -2.0543016668753662 -2.2504622862682178 -2.0759494165085055 -2.0590589252006444 -2.0591533717049408 -2.0744466887064834 -2.266943383012693 -2.0813372676052562 -2.2178459381695839 -2.1434109260848757 -2.2774159678744303
leaf_weight=194.06835459172726 1852.4946609735489 349.8511154204607 1704.8970960527658 215.01541508734226 36.52533657848835 249.42844304442406 94.70183652639389 3462.6899204999208 389.98497922718525 357.24419559538364 135.97986750304699 760.87116800248623 224.08073958754539 176.5537956058979 132.37134027481079 1446.9314056634903 59.672718554735184 143.72499911487103 226.54509964585304 124.36217008531094 2695.481826633215 6.3369258642196646 44.622519627213478 18.658726155757904 9.6814145147800428 2191.3441689908504 85.636512026190758 977.38280169665813 4.8407072573900214 3595.4133122116327
leaf_count=2205 21048 3975 19371 2443 415 2834 1076 39343 4431 4059 1545 8645 2546 2006 1504 16440 678 1633 2574 1413 30626 72 507 212 110 24898 973 11105 55 40851
internal_value=-2.22525 -2.24692 -2.26204 -2.02796 -2.18642 -2.04986 -1.97891 -2.27092 -2.24211 -2.03575 -1.99954 -2.21122 -2.04948 -2.16606 -1.94595 -2.23124 -1.97432 -2.16359 -2.06972 -2.0831 -2.24844 -1.92005 -2.00931 -1.98008 -2.15016 -2.26338 -2.05352 -2.21289 -2.02304 -2.27508
internal_weight=21967.4 19793.8 15836.6 2173.57 3957.23 1505.99 667.578 10954.3 4882.25 875.376 415.509 1784.46 581.325 2172.77 252.069 1796.78 195.653 1996.22 630.612 350.907 3085.47 138.708 294.051 113.361 46.2068 3896.24 279.705 1738.25 219.856 7058.1
internal_count=249593 224897 179935 24696 44962 17111 7585 124463 55472 9946 4721 20275 6605 24687 2864 20415 2223 22681 7165 3987 35057 1576 3341 1288 525 44269 3178 19750 2498 80194
is_linear=0
shrinkage=1


Tree=1
num_leaves=31
num_cat=0
split_feature=33 34 21 32 31 0 32 22 21 32 21 2 32 21 31 21 32 21 2 27 31 2 15 31 31 32 0 0 3 2
split_gain=30047.9 2004.42 1330.08 972.093 312.773 403.21 202.666 151.302 145.786 137.78 113.157 89.8181 86.3663 67.0673 44.2523 42.9888 23.7197 23.4648 21.0916 18.8466 17.4367 14.5078 13.1584 9.25593 8.1846 5.83343 5.66241 4.72986 4.37392 6.65515
threshold=1.0000000180025095e-35 1.0000000180025095e-35 1.4221089832436173 0.059027777777777797 1.0000000180025095e-35 49.503382597417165 -0.45804195804195796 1.0657887486781739 0.60650215996789181 -0.19999999999999998 -0.19069278898487368 55.54213131793599 0.29285714285714298 0.09495678766375297 -1.0000000180025095e-35 1.7870478123363485 0.12916666666666671 0.16184166714897835 46.631578947368425 0.00077550130181713872 0.095454545454545472 82.628025760604046 437.50000000000006 0.076923076923076913 -0.10000000000000001 -0.21428571428571419 39.678305159919994 37.359250815259259 25.000000000000004 53.404549804903191
decision_type=2 2 2 2 2 2 2 2 2 2 2 2 2 2 2 2 2 2 2 2 2 2 2 2 2 2 2 2 2 2
left_child=1 8 4 11 5 7 -7 -2 9 10 -1 15 16 -11 -13 -4 -10 24 23 -20 21 -6 -22 -5 27 -26 -14 -3 29 -19
right_child=2 17 3 18 20 6 -8 -9 12 13 -12 14 26 -15 -16 -17 -18 28 19 -21 22 -23 -24 -25 25 -27 -28 -29 -30 -31
leaf_value=-0.016217924973102912 0.086631259346735032 -0.046377296702140663 0.15197799490720262 0.030340893670042599 0.047935372432322695 0.16329499716504026 0.11445730478729102 0.12660577438042839 0.0077940319563793593 -0.029538650751836544 0.0075578824837536423 0.1881537067514758 -0.028783527077924843 -0.016585835231615848 0.22701549067433008 0.19422357612041596 -0.0035608300048132258 -0.031533982730311855 0.090339109644754362 0.044122572707928652 0.041621857027084652 -0.022788254810622528 0.072150981872530204 0.071016021250000824 -0.040389081378331887 -0.049908950359635385 -0.017294751285190698 -0.03743718856341606 -0.04255067936830062 0.02935217112255338
leaf_weight=1317.2455488964915 2029.9786911085248 842.13620450347662 184.64987257122993 44.902366325259209 169.74679243564606 310.43879377841949 747.51758463680744 274.39814114570618 921.85156511515379 1970.8484167382121 805.58254223316908 202.04971761256456 184.47755445539951 2043.9532853886485 209.40672584623098 131.55248886346817 915.34114055335522 31.180932104587555 109.21717073768377 32.052716977894306 49.85098709911108 6.9154184237122527 203.07715357840061 22.277918539941311 199.15813831239939 5846.7736366167665 285.04582928866148 225.12091635912657 1668.6490015313029 4.3264210522174826
leaf_count=15134 21182 9922 1766 487 1840 3055 7630 2796 10428 22901 9126 1907 2143 23520 1955 1221 10479 368 1182 347 540 75 2197 241 2342 69133 3309 2650 19666 51
internal_value=-0.000300328 -0.0308905 0.111364 0.16479 0.0981336 0.103278 0.128933 0.0914463 -0.0134769 -0.0175041 -0.00719369 0.192058 -0.0027564 -0.0229513 0.208447 0.170126 0.00213514 -0.0475635 0.0691148 0.080272 0.0577122 0.0450261 0.0663411 0.0447464 -0.0488493 -0.0496029 -0.0218709 -0.044533 -0.0421681 -0.0233775
internal_weight=21989.7 17261.7 4728.03 936.109 3791.92 3362.33 1057.96 2304.38 8444.35 6137.63 2122.83 727.659 2306.72 4014.8 411.456 316.202 1837.19 8817.35 208.45 141.27 429.59 176.662 252.928 67.1803 7113.19 6045.93 469.523 1067.26 1704.16 35.5074
internal_count=249593 201172 48421 9106 39315 34663 10685 23978 97040 70681 24260 6849 26359 46421 3862 2987 20907 104132 2257 1529 4652 1915 2737 728 84047 71475 5452 12572 20085 419
is_linear=0
shrinkage=0.05


Tree=2
num_leaves=31
num_cat=0
split_feature=33 30 30 21 30 30 6 1 6 29 15 15 30 30 27 29 20 34 30 19 32 13 19 31 20 21 1 30 6 30
split_gain=25456.7 4222.39 2326.66 273.955 271.968 256.914 88.2322 75.2256 69.7586 61.8338 58.8705 38.0788 34.909 33.9588 33.8721 31.894 29.8611 29.0226 26.387 23.2489 20.7073 20.3636 19.2339 20.7065 15.3411 14.9529 12.0114 10.3248 3.89246 3.65962
threshold=1.0000000180025095e-35 1.0000000180025095e-35 0.37980769230769235 1.2538020807293353 0.24038461538461542 0.57738095238095244 8.5000000000000018 57.420757810943051 10.500000000000002 0.12500000000000003 424.50000000000006 447.50000000000006 0.29285714285714287 0.72077922077922085 0.08727496048924617 0.12500000000000003 0.42261904761904767 1.0000000180025095e-35 0.27922077922077926 0.40175438596491236 0.076923076923076913 5.5000000000000009 0.48398398398398407 0.095454545454545472 0.92582417582417598 -0.040112541372437957 54.047960236547873 0.16025641025641027 8.5000000000000018 0.80625000000000013
decision_type=2 2 2 2 2 2 2 2 2 2 2 2 2 2 2 2 2 2 2 2 2 2 2 2 2 2 2 2 2 2
left_child=2 3 4 6 19 17 16 10 12 -8 -5 22 -6 28 -9 20 -2 25 -10 21 -13 -1 23 -3 -17 -4 -24 -21 -7 -15
right_child=1 11 5 7 8 13 9 14 18 -11 -12 15 -14 29 -16 24 -18 -19 -20 27 -22 -23 26 -25 -26 -27 -28 -29 -30 -31
leaf_value=0.013630623890406042 0.15912373058035745 0.025705153885505413 -0.033938372043315679 0.074728870647461504 0.011155432977028146 -0.038341694264860775 0.12673923644760485 0.18059762842587213 -0.010773204147643311 0.10196797113785377 0.15075513743326047 0.052124680833900809 -0.0071665600285818034 -0.048581780543366967 0.10818055552937256 0.042711975125653577 0.12187638308047109 -0.038723316336839189 -0.022508847726596167 0.064428077655905996 0.069279200945780203 0.00073562150100663906 0.085290468022591284 0.054142981506902499 -0.0027252027975700433 -0.02625709933097059 0.027899375503204135 0.025149888205469231 -0.044411065798457175 -0.051883106877966025
leaf_weight=1355.0628288164735 253.18886212259531 347.97481113672256 1073.4143485054374 29.934637330472469 351.18747715651989 373.43864354491234 1017.8780217170715 378.52471566945314 882.77296967804432 380.11164217442274 621.59122684597969 1006.3829874545336 991.13742807507515 1851.2413459345698 22.835680328309536 619.26990330219269 97.27883368730545 1188.221943795681 1061.0402932167053 18.582165092229843 230.45174936950207 396.67108349502087 28.30715499073267 79.772041149437428 18.817820213735104 1664.2571696192026 15.628542825579641 162.17790687829256 2628.9351358562708 2836.2936471700668
leaf_count=15255 2247 3524 12736 255 3975 4475 9275 3054 10173 3515 5260 10163 11519 22760 199 6251 883 14471 12453 205 2338 4465 283 828 190 19667 156 1833 32189 34996
internal_value=-0.000364068 0.0969255 -0.0301194 0.138364 -0.00238536 -0.0425777 0.126001 0.158751 -0.0111382 0.120085 0.14739 0.0474166 -0.00236459 -0.0478959 0.176769 0.0506355 0.149175 -0.0321499 -0.01719 0.012494 0.0553784 0.0107156 0.0345311 0.0311342 0.041362 -0.029282 0.0660621 0.0295475 -0.0436708 -0.050591
internal_weight=21982.4 5147.95 16834.4 2801.34 5218.63 11615.8 1748.46 1052.89 3286.14 1397.99 651.526 2346.61 1342.32 7689.91 401.36 1874.92 350.468 3925.89 1943.81 1932.49 1236.83 1751.73 471.683 427.747 638.088 2737.67 43.9357 180.76 3002.37 4687.53
internal_count=249593 48421 201172 24688 59878 141294 15920 8768 38120 12790 5515 23733 15494 94420 3253 18942 3130 46874 22626 21758 12501 19720 4791 4352 6441 32403 439 2038 36664 57756
is_linear=0
shrinkage=0.05


Tree=3
num_leaves=31
num_cat=0
split_feature=33 30 30 30 30 21 2 21 20 30 30 19 34 2 13 22 3 19 16 2 21 27 2 21 22 20 30 4 30 34
split_gain=21850.7 3089.4 2237.38 257.411 245.943 188.725 73.5344 57.4219 43.1892 41.0139 34.6351 32.8053 28.5499 27.5163 24.5924 25.6497 20.3191 18.8706 19.1404 17.6223 17.5371 15.4433 15.4026 14.5603 11.3143 8.86945 8.59319 7.21993 3.80724 3.78609
threshold=1.0000000180025095e-35 1.0000000180025095e-35 0.37980769230769235 0.57738095238095244 0.22649572649572652 1.6765505825015115 50.139450098739182 1.0123614316585023 0.85164835164835173 0.30384615384615393 0.72077922077922085 0.73623188405797102 1.0000000180025095e-35 59.940437072967207 5.5000000000000009 -0.25193296063422427 84.000000000000014 0.40175438596491236 -1.0000000180025095e-35 87.037472593183196 -1.0628449615363278 -0.042851527850081832 48.980044931941336 -0.040112541372437957 1.647504291492855 0.63068181818181823 0.16025641025641027 64.176370297959366 0.80625000000000013 1.0000000180025095e-35
decision_type=2 2 2 2 2 2 2 2 2 2 2 2 2 2 2 2 2 2 2 2 2 2 2 2 2 2 2 2 2 2
left_child=2 5 4 12 17 6 8 -8 -2 19 29 14 23 16 15 -3 -7 18 -1 -6 -16 25 -11 -4 -23 -13 -19 -15 -12 -5
right_child=1 11 3 10 9 13 7 -9 -10 22 28 21 -14 27 20 -17 -18 26 -20 -21 -22 24 -24 -25 -26 -27 -28 -29 -30 -31
leaf_value=0.016323693954881986 0.10162835818149685 0.012769642215811228 -0.033172601343045442 -0.037668183682778918 -0.0058776722306456497 0.12340746560830435 0.11078845110696059 0.12975719874122935 0.036870867119400033 -0.021521007032549624 -0.04809089653904023 0.046984156149421884 -0.038009945587833466 0.15177113456511854 0.09740825826311883 0.045547012281963652 0.15776855065719755 0.058389794061301958 0.0057019074214945276 0.040276284283960073 0.029740884882387776 0.07419471176802328 -0.011447371953603777 -0.025498853500811738 0.0067278211920805383 -0.010276522870987348 0.023263494703735395 0.18307422276721369 -0.051505020591482188 -0.043786567922350181
leaf_weight=761.35400784015656 712.9636238142848 63.233775116503239 1044.0603068694472 357.06137100607157 1749.3373298272491 200.58866633474827 1087.1776225343347 741.35556593537331 28.497514620423317 768.96879083663225 1778.4878221452236 22.140381835401062 1150.9678370952606 178.7845565751195 9.0738378539681417 1728.3083801791072 83.035093419253826 19.555347330868244 964.57011745125055 19.917008906602859 455.56835027784109 139.83811445534229 764.11584433168173 1628.9988145977259 6.8921228051185599 8.9301582723855955 160.71431750804186 61.2390526086092 2717.2793487906456 2539.2816083654761
leaf_count=8456 5847 619 12736 4414 20187 1456 8996 5850 237 9147 22760 210 14471 1275 88 16894 597 205 10797 228 4447 1325 9079 19667 65 85 1779 430 34996 32250
internal_value=-0.000416789 0.0855627 -0.0293564 -0.0419311 -0.00227414 0.118715 0.113009 0.118549 0.0991992 -0.0105286 -0.047384 0.0433916 -0.0313793 0.146443 0.0417157 0.0444007 0.134004 0.0120215 0.0103971 -0.00533282 0.0312794 0.0642767 -0.0165141 -0.0285093 0.0711265 0.0305634 0.0274026 0.160505 -0.0501665 -0.0430473
internal_weight=21952.3 5527.63 16424.7 11216.1 5208.53 3093.64 2569.99 1828.53 741.461 3302.34 7392.11 2433.99 3824.03 523.647 2256.18 1791.54 283.624 1906.19 1725.92 1769.25 464.642 177.801 1533.08 2673.06 146.73 31.0705 180.27 240.024 4495.77 2896.34
internal_count=249593 48421 201172 141294 59878 24688 20930 14846 6084 38641 94420 23733 46874 3758 22048 17513 2053 21237 19253 20415 4535 1685 18226 32403 1390 295 1984 1705 57756 36664
is_linear=0
shrinkage=0.05


Tree=4
num_leaves=31
num_cat=0
split_feature=33 30 30 30 30 21 22 31 4 29 14 30 30 15 34 2 13 23 19 13 15 2 0 19 21 5 21 30 30 30
split_gain=18950.8 2347.47 2150.55 252.583 226.392 144.338 63.7901 57.1198 50.8388 39.8566 38.9911 38.0844 35.3335 30.2303 27.0894 26.3793 25.371 19.8447 19.0117 18.2364 22.8537 15.5382 15.3659 14.3264 13.7917 12.2016 12.1367 10.0848 3.9615 3.9306
threshold=1.0000000180025095e-35 1.0000000180025095e-35 0.39230769230769241 0.57738095238095244 0.24038461538461542 1.2538020807293353 1.4191405833963644 -1.0000000180025095e-35 58.265952671323596 0.17500000000000002 55.750000000000007 0.30384615384615393 0.72077922077922085 447.50000000000006 1.0000000180025095e-35 44.483256566662519 4.5000000000000009 0.12916666666666668 0.35067567567567576 5.5000000000000009 457.50000000000006 48.980044931941336 43.297409643327406 1.3368794326241138 -0.040112541372437957 1885.0000000000002 -0.020506324093907392 0.095454545454545472 0.80625000000000013 0.63068181818181823
decision_type=2 2 2 2 2 2 2 2 2 2 2 2 2 2 2 2 2 2 2 2 2 2 2 2 2 2 2 2 2 2
left_child=2 5 4 14 19 6 9 10 -9 -2 -7 17 29 22 24 -8 26 -6 -18 20 -1 -13 23 -3 -4 -21 -15 -24 -14 -5
right_child=1 13 3 12 11 7 15 8 -10 -11 -12 21 28 16 -16 -17 18 -19 -20 25 -22 -23 27 -25 -26 -27 -28 -29 -30 -31
leaf_value=0.0054513927484615872 0.095822354893800532 0.016426256790619008 -0.032489035635147143 -0.039812390687474331 0.0051680905802249594 0.0839813336404657 0.068410102773999559 0.10619036091883056 0.13874398119572323 0.075443875259413304 0.11359746534336382 -0.021046085535814059 -0.047602955636215347 0.033761593042923331 -0.037276698318708563 0.13000212993683036 0.032558749554236877 -0.0080137907720300577 0.055792532474344327 0.00047851907573367709 0.01824150998979546 -0.011000526620682509 0.025473206204776236 0.072103576376704323 -0.024871690117560991 0.043484608909698144 0.049240290532768335 0.045861869345111841 -0.051135011444283118 -0.044067298297310459
leaf_weight=546.77147121727467 1558.560980938375 228.03154899179935 1003.9157249331474 1090.8061884343624 360.38491962105036 166.64909997582436 23.71852096170187 200.99376390129328 421.72924752533436 314.95445221662521 493.45630080997944 779.88801557570696 1708.6647881641984 157.77841998636723 1114.0276373922825 175.33049496263266 704.42220326513052 1355.7293407469988 103.54737126082182 429.1444616317749 977.93407002091408 774.45545747876167 114.03429263830185 11.370495744049547 1566.8409686237574 16.16571094840765 1048.9602827951312 147.61041370779276 2602.9955125376582 1703.8616324216127
leaf_count=6026 11939 2186 12586 14226 4164 1176 181 1373 2810 2486 3409 9447 22760 1475 14455 1314 6672 15730 953 4774 10779 9294 1097 101 19318 179 9842 1407 34996 22438
internal_value=-0.000454541 0.0763908 -0.0286004 -0.0413612 -0.00231982 0.103765 0.0954429 0.117122 0.128432 0.0924413 0.106267 -0.0103853 -0.0468744 0.0398515 -0.0307175 0.123067 0.0426037 -0.00524128 0.0356078 0.0110657 0.0136647 -0.0160544 0.0287123 0.0193804 -0.0278598 0.00214487 0.0472503 0.0371256 -0.0497478 -0.0424232
internal_weight=21902.7 5871.15 16031.6 10791.1 5240.47 3355.39 2072.56 1282.83 622.723 1873.52 660.105 3270.46 7106.33 2515.76 3684.78 199.049 2014.71 1716.11 807.97 1970.02 1524.71 1554.34 501.047 239.402 2570.76 445.31 1206.74 261.645 4311.66 2794.67
internal_count=249593 48421 201172 140779 60393 24688 15920 8768 4183 14425 4585 38635 94420 23733 46359 1495 18942 19894 7625 21758 16805 18741 4791 2287 31904 4953 11317 2504 57756 36664
is_linear=0
shrinkage=0.05


Tree=5
num_leaves=30
num_cat=0
split_feature=34 23 32 32 23 32 32 23 32 32 23 31 4 14 32 23 29 32 23 32 31 23 32 2 0 4 16 0 32
split_gain=9337.35 2845.62 1689.89 1310.84 1175.52 734.813 515.908 486.852 245.891 209.864 65.3202 54.3302 35.3001 35.2496 34.7385 20.1747 20.1309 13.4325 9.36003 10.5367 6.90647 5.28785 4.80564 3.91181 3.88565 3.63168 2.92199 2.33202 2.12018
threshold=1.0000000180025095e-35 1.0000000180025095e-35 0.059027777777777797 -0.083333333333333329 0.51666666666666672 -0.44097222222222215 -0.54195804195804176 0.16025641025641027 0.059027777777777797 0.1602564102564103 0.29285714285714287 -0.071428571428571466 60.693240545749028 54.750000000000007 0.29285714285714298 0.42261904761904767 0.12500000000000003 -0.21428571428571419 0.62019230769230782 0.12019230769230772 -0.37980769230769224 0.88194444444444453 -0.090909090909090842 67.17217689995708 52.841992665598958 60.259206797770652 2.5000000000000004 28.989542939907814 -0.42582417582417575
decision_type=2 2 2 2 2 2 2 2 2 2 2 2 2 2 2 2 2 2 2 2 2 2 2 2 2 2 2 2 2
left_child=1 2 11 4 5 -3 -6 8 -5 16 -9 13 -13 -1 -11 20 -4 21 19 -19 27 26 -20 25 -25 -22 -17 -2 -23
right_child=15 3 9 7 6 -7 -8 10 -10 14 -12 12 -14 -15 -16 17 -18 18 22 -21 23 28 -24 24 -26 -27 -28 -29 -30
leaf_value=0.067882885629964626 -0.021418734982785372 0.093906982930376304 0.051067675291481866 0.037642881611130483 0.036348924781937159 0.033634822160906727 -0.017534410122636634 -0.011465485892544317 -0.0017589961134959345 0.011236316891417157 -0.026072888914800002 0.1002828624917538 0.12318531886603201 0.097078022958273003 -0.013667851260697248 -0.024846190868072344 0.030607144804338893 -0.039756168425871215 -0.044972583467717049 -0.0473011692788858 -0.04157861474616209 -0.01040693989069218 -0.050112342632457924 -0.030985726534130356 0.0077481032665949025 -0.030801341281198914 -0.040359904388247519 0.025923557618526594 -0.043838304546307084
leaf_weight=134.93813519179821 3.8271767869591695 578.87742575258017 360.78735964745283 673.66444735974073 608.85756579041481 3987.4736089482903 1634.5422620624304 1442.0773685500026 957.73893190175295 336.47363866120577 1640.502508662641 397.85892142355442 377.00917890667915 725.85758299380541 238.28958119452 115.93761883676052 192.07682406902313 803.93483771383762 723.23314054310322 1356.7076704576612 1596.0742825120687 6.023512288928031 2551.4412349313498 40.016244508326054 7.0374457612633696 101.28215536475182 49.41829015314579 4.5910179167985916 175.71541599929333
leaf_count=925 51 4064 3305 6118 5685 38285 19825 17074 11139 3732 20764 2576 2333 4822 2948 1551 1800 10888 9909 18862 21783 80 35623 541 95 1374 661 61 2382
internal_value=-0.000113519 0.0236384 0.0691987 0.012708 0.0267372 0.0412955 -0.00289859 -0.00755875 0.0145215 0.0220724 -0.0192469 0.101651 0.111577 0.0925913 0.000896873 -0.0451457 0.0440364 -0.0465983 -0.0472225 -0.0445158 -0.040327 -0.0367007 -0.0489928 -0.0405453 -0.0250479 -0.040957 -0.0297274 0.00388047 -0.0428206
internal_weight=21822.3 14287 2763.29 11523.7 6809.75 4566.35 2243.4 4713.98 1631.4 1127.63 3082.58 1635.66 774.868 860.796 574.763 7535.24 552.864 5782.41 5435.32 2160.64 1752.83 347.095 3274.67 1744.41 47.0537 1697.36 165.356 8.41819 181.739
internal_count=249256 145395 22441 122954 67859 42349 25510 55095 17257 11785 37838 10656 4909 5747 6680 103861 5105 79956 75282 29750 23905 4674 45532 23793 636 23157 2212 112 2462
is_linear=0
shrinkage=0.05


Tree=6
num_leaves=31
num_cat=0
split_feature=33 30 30 30 30 21 6 2 31 29 30 6 30 19 30 31 1 30 27 29 21 18 21 6 16 30 2 0 2 21
split_gain=14894.6 1941.72 1608.09 275.159 175.475 93.8245 76.7678 65.0252 46.1534 34.582 32.5926 31.2767 26.2424 21.6369 21.4754 20.442 24.6105 20.3935 17.3313 17.1614 20.9926 16.0875 14.0368 12.8002 12.4324 10.6988 8.43036 7.4609 5.69629 4.8824
threshold=1.0000000180025095e-35 0.39230769230769241 1.0000000180025095e-35 0.63068181818181823 0.22649572649572652 1.6279778000769103 10.500000000000002 51.48095426387242 -0.2696969696969696 0.075000000000000025 0.44949494949494956 11.500000000000002 0.27922077922077926 0.25290697674418611 0.27922077922077926 0.13809523809523813 55.514178833639555 0.78174603174603186 0.19219999907499907 0.32500000000000001 1.3430380669392401 -1.0000000180025095e-35 -0.12008687793232936 8.5000000000000018 1.5000000000000002 0.16025641025641027 62.318713182553502 57.933466274551641 49.772425906002013 0.9992384597262991
decision_type=2 2 2 2 2 2 2 2 2 2 2 2 2 2 2 2 2 2 2 2 2 2 2 2 2 2 2 2 2 2
left_child=1 4 5 10 13 7 12 9 -9 -2 23 18 -6 24 -8 19 28 29 -7 20 -4 -21 -12 -3 -1 -15 -13 -18 -17 -5
right_child=2 3 15 17 6 11 14 8 -10 -11 22 26 -14 25 -16 16 27 -19 -20 21 -22 -23 -24 -25 -26 -27 -28 -29 -30 -31
leaf_value=0.010857259256997988 0.078288910324543229 -0.0061916056087294655 0.032434046918945372 -0.044437798364882063 0.01500992640280256 0.10949989296588861 -0.01005006314773902 0.074611846223554476 0.091073875675559524 0.058711142447901404 -0.037243972184517249 0.075350940327527968 -0.0033554922390169693 0.053160893609223603 -0.020559929726613108 0.011808194858177743 0.14524210313884167 -0.05036220216973103 0.034743956268865256 0.057830973288652998 0.046273263669581746 0.013482316960012317 -0.030458488993208362 -0.025234078690476221 0.0021550650096501377 0.019656983425172369 0.098267450058321312 0.060708632249074759 0.052718942202309937 -0.027298345424199202
leaf_weight=1074.5214515328407 542.65787976980209 97.046405546367168 2076.8824580237269 2700.1396552622318 236.53682922571898 494.48724848031998 918.84806587547064 676.23021736741066 1395.3642635494471 428.83843740820885 1362.439324118197 143.0970645993948 1072.7950195521116 26.832390747964382 1046.1579526290298 12.778457954525946 9.1313258633017558 2796.6768927648664 9.2450706362724286 22.476070865988731 325.23183499276638 175.68790936470032 1897.1224987283349 1168.5795919075608 667.26687726378441 206.34297285228968 88.687487691640854 7.0639304146170607 32.652455858886242 49.613908544182777
leaf_count=11605 3662 1228 18528 38529 2648 2829 10722 4720 9183 3003 18560 847 12699 265 12877 115 82 40835 55 203 2875 1586 25528 15009 7287 2209 509 63 294 701
internal_value=-0.000146755 -0.0269669 0.0636475 -0.0398164 -0.0023092 0.0846168 -0.00940872 0.0806531 0.0857412 0.0697213 -0.0306503 0.100877 -2.49559e-05 0.00945751 -0.0156556 0.0338588 0.0624797 -0.047287 0.108209 0.0331548 0.0343284 0.0188026 -0.0333068 -0.0237839 0.00752953 0.0237443 0.0845254 0.114336 0.0418217 -0.0441404
internal_weight=21761.4 15320.9 6440.51 10071.6 5249.3 3778.61 3274.34 3043.09 2071.59 971.496 4525.19 735.517 1309.33 1974.96 1965.01 2661.9 61.6262 5546.43 503.732 2600.28 2402.11 198.164 3259.56 1265.63 1741.79 233.175 231.785 16.1953 45.4309 2749.75
internal_count=249256 200702 48554 140390 60312 24808 38946 20568 13903 6665 60325 4240 15347 21366 23599 23746 554 80065 2884 23192 21403 1789 44088 16237 18892 2474 1356 145 409 39230
is_linear=0
shrinkage=0.05


Tree=7
num_leaves=31
num_cat=0
split_feature=33 34 22 1 18 18 31 4 22 2 2 4 4 32 1 32 27 6 31 2 2 4 0 2 22 20 0 31 2 2
split_gain=13152.1 1668.06 164.967 109.125 87.7858 113.512 78.1101 67.2137 66.8016 52.1194 48.1117 31.4463 31.3278 27.7627 24.0294 20.5883 19.7626 17.556 15.8179 15.7824 14.9722 13.8433 13.5829 10.9995 10.4205 7.32541 6.64545 6.77768 4.71772 4.5468
threshold=1.0000000180025095e-35 1.0000000180025095e-35 1.4750974317498453 58.467584810571047 -1.0000000180025095e-35 0.32071428571428579 1.0000000180025095e-35 61.769787619492831 0.67766263302528562 51.079875465727561 48.757402217619109 53.57140161704725 63.137095480575113 0.076923076923076913 63.452044180731527 -0.27525252525252519 0.026689240893786301 10.500000000000002 -0.22649572649572647 42.516282225237454 40.410851297040558 48.632196723833424 24.743477986570539 47.058147396889801 0.9623377392033875 0.087121212121212141 37.468334481853162 -0.3100961538461538 46.745011232985341 42.630018927952968
decision_type=2 2 2 2 2 2 2 2 2 2 2 2 2 2 2 2 2 2 2 2 2 2 2 2 2 2 2 2 2 2
left_child=1 8 3 4 6 -6 -2 16 10 13 11 -1 17 23 -9 -12 -5 -11 26 24 -15 28 -21 -4 -10 -14 -3 -28 -20 -23
right_child=2 18 9 7 5 -7 -8 14 19 12 15 -13 25 20 -16 -17 -18 -19 21 22 -22 29 -24 -25 -26 -27 27 -29 -30 -31
leaf_value=-0.021001306874882227 0.062641594862916733 -0.037153004879807376 0.076143329985269015 0.06472993773150966 0.038768260894925508 0.061598308632138478 0.034428764912707334 0.080579727519716232 -0.021237131971011215 0.095199118445550263 -0.00070880032940905081 -0.011438841715178011 0.088240300650505143 -0.044411072156042265 0.1150680603918076 -0.010021786214114529 0.042037209515252673 0.071488909804095821 -0.048009255658428958 -0.038439838952371311 0.035223285551265297 -0.044247290956292575 0.0089597113454704946 0.04914661998030731 0.0015976298008347188 0.12659410399026447 0.0026593036890979194 -0.029787671474947038 -0.043898580154425576 -0.039807150603627675
leaf_weight=1781.3220164403319 2045.6324285417795 307.02171770483255 126.54305479675531 619.88224746286869 1801.6178130656481 789.15898330509663 284.40909630060196 277.69677287340164 89.320107571780682 179.06301235407591 740.05526097863913 1677.6439655646682 31.010356523096561 7.4883106946945217 71.818094089627266 3022.183279812336 124.42028416693211 186.57818218320608 2563.1873209103942 14.530430749058722 18.394847318530083 1263.8275703787804 551.95086681097746 68.006640128791332 110.6978523209691 72.629441775381565 22.733008518815041 50.796131864190102 1280.2573723644018 1500.9509034156799
leaf_count=22344 14377 4418 834 4375 13958 5721 2498 1806 1069 1118 8614 20306 181 65 453 36651 929 1215 38526 172 159 18683 6387 441 1298 424 319 726 19105 22084
internal_value=-0.000177263 -0.0262331 0.0580219 0.0553426 0.0521357 0.0457454 0.0592163 0.0697042 -0.0106216 0.0812658 -0.0121114 -0.0163695 0.0908228 0.060579 0.0879887 -0.00819187 0.0610047 0.083342 -0.0440712 0.00340405 0.0112031 -0.0446526 0.00766949 0.0670315 -0.00862952 0.116119 -0.0338715 -0.0197879 -0.0466531 -0.0418539
internal_weight=21680.8 14976.5 6704.35 6014.64 4920.82 2590.78 2330.04 1093.82 7987.7 689.714 7221.2 3458.97 469.281 220.433 349.515 3762.24 744.303 365.641 6988.77 766.499 25.8832 6608.22 566.481 194.55 200.018 103.64 380.551 73.5291 3843.44 2764.78
internal_count=249256 200702 48554 44117 36554 19679 16875 7563 96841 4437 87915 42650 2938 1499 2259 45265 5304 2333 103861 8926 224 98398 6559 1275 2367 605 5463 1045 57631 40767
is_linear=0
shrinkage=0.05


Tree=8
num_leaves=31
num_cat=0
split_feature=30 30 30 30 30 30 31 6 14 14 6 31 30 30 6 6 19 30 6 18 20 31 6 24 30 31 14 30 22 24
split_gain=11607.4 1835.43 1292.67 160.781 150.879 74.76 71.2872 67.7321 48.425 40.6896 38.7218 33.5427 30.0495 27.6474 27.4186 26.3798 24.1073 21.6809 21.6174 20.9131 18.6357 14.5154 13.951 11.0958 10.7272 9.78944 9.43182 7.76261 5.50067 3.5937
threshold=0.19375000000000003 1.0000000180025095e-35 0.44949494949494956 0.63068181818181823 0.30384615384615393 0.14835164835164838 -0.064583333333333312 10.500000000000002 55.750000000000007 55.750000000000007 9.5000000000000018 -0.63068181818181801 0.44097222222222227 0.29285714285714287 11.500000000000002 10.500000000000002 0.35067567567567576 0.78174603174603186 9.5000000000000018 0.19292803970223329 0.60769230769230786 -0.30384615384615371 7.5000000000000009 1.0000000180025095e-35 0.51666666666666672 0.13809523809523813 54.750000000000007 0.40833333333333338 0.14395707078434475 0.11805555555555557
decision_type=2 2 2 2 2 2 2 2 2 2 2 2 2 2 2 2 2 2 2 2 2 2 2 2 2 2 2 2 2 2
left_child=1 6 4 22 7 16 9 13 14 21 12 -11 -6 -2 -8 19 20 -5 -10 -7 -3 -1 28 -9 -24 -18 -17 -12 -4 -19
right_child=2 5 3 17 10 15 8 23 18 11 27 -13 -14 -15 -16 26 25 29 -20 -21 -22 -23 24 -25 -26 -27 -28 -29 -30 -31
leaf_value=0.043780156059382271 0.010188478641417344 0.027181577217241001 -0.018755159067808169 -0.043032457021134708 -0.0030056875022964947 0.025530752180760292 0.076844405862867032 0.016883396471386838 0.10341625116463482 0.050419464937868211 -0.019620365116768675 0.072530510729661921 -0.023421988181700833 -0.0049184940288400092 0.057283283188167139 0.002761804929330636 0.037758387165878288 -0.017000662980064859 0.082246598061711473 0.094013350360085457 0.015683546943740259 0.059797605135632703 -0.029294569085965474 -0.011349404294939171 -0.0354787554979034 0.09823244769818297 0.013012578269289605 -0.027087918841489506 0.017014452409403247 -0.049808333596504051
leaf_weight=205.32548373937607 1116.1719944700599 2123.3046102747321 118.61326062679291 2553.051311545074 630.22965927422047 46.399204172194004 772.38838364928961 35.040741957724094 224.92080944776535 208.42493696510792 1342.8931722640991 1443.0796982720494 252.03647926449776 414.30115910619497 258.95014061033726 351.16204448789358 357.96382815390825 10.149527892470358 372.71337953209877 14.408055908977984 431.20016322284937 635.34670370072126 1374.8648630082607 1014.9523051828146 1588.8773810863495 6.3634321987628928 630.79446127265692 491.23972030729055 10.890819169580935 2566.0668494850397
leaf_count=1330 12253 18093 1607 39230 7755 396 4482 407 1253 1344 17191 8797 3339 4899 1534 3807 2927 160 2098 114 3675 3979 19162 11985 23173 52 6815 6578 146 40675
internal_value=-0.000200107 0.0471973 -0.0285391 -0.0409474 -0.00927216 0.0228853 0.0705556 -0.000611024 0.078797 0.0651373 -0.0174948 0.0697753 -0.00886358 0.00609519 0.0719981 0.01137 0.0269922 -0.0463851 0.0903816 0.0430969 0.0252496 0.0559481 -0.0319168 -0.0103873 -0.0326225 0.0390943 0.00935838 -0.0216368 -0.0156014 -0.0496877
internal_weight=21602.1 8082.75 13519.4 8222.51 5296.87 3961.6 4121.15 2580.47 1628.97 2492.18 2716.4 1651.5 882.266 1530.47 1031.34 1042.76 2918.83 5129.27 597.634 60.8073 2554.5 840.672 3093.25 1049.99 2963.74 364.327 981.957 1834.13 129.504 2576.22
internal_count=249256 60696 188560 124153 64407 35879 24817 29544 9367 15450 34863 10141 11094 17152 6016 11132 24747 80065 3351 510 21768 5309 44088 12392 42335 2979 10622 23769 1753 40835
is_linear=0
shrinkage=0.05


Tree=9
num_leaves=31
num_cat=0
split_feature=33 34 21 32 21 32 21 32 21 21 21 2 6 32 15 6 21 6 22 6 15 31 2 29 1 32 31 0 21 31
split_gain=10373.7 1568.35 253.349 167.597 111.116 83.3741 73.7571 70.2269 84.0179 60.4213 51.4871 44.12 42.0218 39.7549 35.8321 32.6955 29.5461 26.4752 18.8772 18.1192 17.3799 17.1402 16.6697 17.7102 10.7347 9.84092 5.75444 5.67835 5.63089 5.46489
threshold=1.0000000180025095e-35 1.0000000180025095e-35 1.274568754413812 0.059027777777777797 0.5969055245723055 -0.19999999999999998 -0.19069278898487368 -0.45804195804195796 0.4369728595113887 -0.23258540931476632 -0.040112541372437957 50.976887847481102 11.500000000000002 0.29285714285714298 445.50000000000006 10.500000000000002 1.0000000180025095e-35 10.500000000000002 1.0657887486781739 10.500000000000002 498.50000000000006 -0.22649572649572647 64.994968529636438 0.17500000000000002 57.63357702132204 -0.21428571428571419 -0.37980769230769224 37.69700405330186 0.33654907741870754 -0.46410256410256401
decision_type=2 2 2 2 2 2 2 2 2 2 2 2 2 2 2 2 2 2 2 2 2 2 2 2 2 2 2 2 2 2
left_child=1 4 7 12 5 6 -1 9 18 19 -7 -10 14 17 -4 -11 21 -6 -9 -2 -14 27 24 -24 -5 -23 28 -3 -18 -15
right_child=2 16 3 22 13 10 -8 8 11 15 -12 -13 20 29 -16 -17 26 -19 -20 -21 -22 25 23 -25 -26 -27 -28 -29 -30 -31
leaf_value=-0.013333213538483558 0.048236975146006569 -0.035686207167325797 0.054344821996390652 0.022450743666940581 0.010380838948255932 -0.028378368214816454 0.005988070855711845 0.02587103714400555 0.035667423000457409 0.071739615318269362 -0.014599874907150862 0.048934050918734345 0.052299925820759798 0.031512313630202828 0.07953112580324137 0.049988816633352265 0.038868152042158988 -0.0019345089194575057 0.047783698531658626 0.027092594417307766 0.073051157802284744 -0.034519924651723745 0.066102106027870047 0.0018135842552262312 0.044299650162117121 -0.046278957286856139 -0.03743037776650205 -0.015447064457882784 -0.033625338024111058 -0.015247279443808798
leaf_weight=1217.1912019625306 222.9212464466691 223.47867796197534 177.88949007540941 229.41876243054867 698.04615288227797 918.64809450507164 829.61240797489882 1021.1180097311735 988.83069257438183 417.17539972811937 2618.9391554147005 1812.5473190099001 382.32409460097551 5.3781238943338385 986.07728715240955 322.17840147763491 4.3702083453536016 1159.5917258113623 110.46721359342337 198.35225081443787 153.5759195536375 204.72973438352346 60.727576978504658 13.226509287953375 77.32132051885128 4314.493977509439 1688.4523556418717 44.73889485001564 4.3298048377037048 401.6378725245595
leaf_count=15097 1607 3432 981 1886 7955 12622 9137 8015 7255 2439 33212 12655 2148 69 5275 1977 63 13448 805 1451 845 3148 482 110 623 70036 26453 667 62 5301
internal_value=-0.000220733 -0.0247873 0.0488581 0.0635814 -0.00975143 -0.0135393 -0.00550035 0.0428319 0.0396123 0.0536939 -0.0181863 0.0442674 0.0703052 -0.000406784 0.0757361 0.0623486 -0.0429819 0.00269364 0.0280549 0.0383809 0.058381 -0.0450148 0.0334399 0.0548486 0.0281006 -0.0457551 -0.0372212 -0.0323988 0.00252717 -0.0145414
internal_weight=21507.8 14333.6 7174.15 2080.56 7849.04 5584.39 2046.8 5093.59 3932.96 1160.63 3537.59 2801.38 1699.87 2264.65 1163.97 739.354 6484.59 1857.64 1131.59 421.273 535.9 4787.44 380.694 73.9541 306.74 4519.22 1697.15 268.218 8.70001 407.016
internal_count=249256 200702 48554 12350 96841 70068 24234 36204 28730 7474 45834 19910 9249 26773 6256 4416 103861 21403 8820 3058 2993 77283 3101 592 2509 73184 26578 4099 125 5370
is_linear=0
shrinkage=0.05


Tree=10
num_leaves=31
num_cat=0
split_feature=30 30 30 30 30 30 1 18 18 6 6 29 4 30 6 18 15 33 18 23 29 15 6 31 6 31 2 30 18 32
split_gain=9454.43 1594.67 900.825 149.051 87.3817 79.8328 61.009 50.4052 59.2734 36.1057 32.9923 32.3777 28.5264 24.1245 23.8776 20.9393 20.7627 19.7325 17.2297 16.895 16.1709 15.0498 14.8881 14.2612 12.2498 11.2296 10.6457 10.314 5.20543 4.85881
threshold=0.22649572649572652 1.0000000180025095e-35 0.44949494949494956 0.63068181818181823 0.30384615384615393 0.14835164835164838 59.514373589429375 -1.0000000180025095e-35 0.267948717948718 8.5000000000000018 8.5000000000000018 0.17500000000000002 57.609505499030981 0.78174603174603186 9.5000000000000018 0.267948717948718 447.50000000000006 1.0000000180025095e-35 0.19292803970223329 0.51666666666666672 0.12500000000000003 446.50000000000006 7.5000000000000009 -0.1483516483516483 13.500000000000002 0.42261904761904773 87.037472593183196 0.34523809523809529 0.32071428571428579 -0.22474747474747475
decision_type=2 2 2 2 2 2 2 2 2 2 2 2 2 2 2 2 2 2 2 2 2 2 2 2 2 2 2 2 2 2
left_child=1 6 4 19 14 16 7 10 -9 25 -1 12 -8 28 26 -13 23 24 -19 22 -18 -16 -4 -3 -7 -6 -2 -11 -5 -21
right_child=2 5 3 13 9 17 11 8 -10 27 -12 15 -14 -15 21 -17 20 18 -20 29 -22 -23 -24 -25 -26 -27 -28 -29 -30 -31
leaf_value=0.075817984387563264 0.007390518026176871 0.0032324985665251119 -0.0071304821948909667 -0.042103387896143582 -0.0043504999013347489 0.0098641868490595454 0.056320485559798843 0.04226790262228361 0.060938237647098541 -0.014678815624196163 0.058875162820176699 0.02090950827384357 0.082332286416740452 -0.048977839458939985 -0.015260443232096868 0.06568180717624432 0.027888487814822699 0.021593527865311435 0.081813340379093588 -0.030713567267619618 0.019215836221764173 -0.002781164048566381 -0.028985401019065927 0.019863173406555936 -0.0088392497732527209 0.034548745645085387 0.05869453686654133 -0.021804512549684862 -0.0263855822079852 -0.038284261752538754
leaf_weight=379.54483561217785 340.71144662797451 191.88466952741146 82.999474368989468 2303.0363689847291 332.97515279054642 1748.5091790556908 147.90858936309814 998.53773707151413 765.53686328232288 783.91919673234224 1486.9587462842464 48.436506733298302 507.54845920205116 2382.7688264921308 313.37707468867302 60.454930111765862 1636.2123051658273 50.310180976986885 15.253294244408606 350.85405884683132 825.21979179233313 1053.2841417044401 1749.0150141455233 399.51536230742931 91.125415213406086 18.632046736776829 9.487994007766245 1531.3970325663686 62.081541739404202 760.91108748316765
leaf_count=2072 3804 1589 1147 38104 4149 18837 810 5864 4346 10001 8355 267 2662 41009 3763 334 13114 410 110 5243 6753 12648 26155 3288 1003 243 102 20743 1024 11676
internal_value=-0.000338496 0.0373963 -0.0295668 -0.0398761 -0.0114722 0.0179512 0.0593225 0.0565679 0.0504028 -0.0171349 0.0623618 0.0723092 0.0765649 -0.0453652 -0.00266824 0.0461834 0.0229646 0.00990761 0.0366974 -0.031009 0.0249919 -0.0056554 -0.0280024 0.0144902 0.00893071 -0.00218287 0.00895791 -0.0194014 -0.0417043 -0.0359293
internal_weight=21428.4 9352.96 12075.5 7691.67 4383.78 4958.03 4394.93 3630.58 1764.07 2666.92 1866.5 764.348 655.457 4747.89 1716.86 108.891 3052.83 1905.2 65.5635 2943.78 2461.43 1366.66 1832.01 591.4 1839.63 351.607 350.199 2315.32 2365.12 1111.77
internal_count=249625 69814 179811 124358 55453 45104 24710 20637 10210 35136 10427 4073 3472 80137 20317 601 24744 20360 520 44221 19867 16411 27302 4877 19840 4392 3906 30744 39128 16919
is_linear=0
shrinkage=0.05


Tree=11
num_leaves=31
num_cat=0
split_feature=33 34 23 32 32 23 32 23 32 23 23 32 1 28 23 23 15 15 19 15 32 13 3 15 20 2 23 13 0 1
split_gain=8163.13 1494.15 141.937 178.939 100.579 72.5633 87.162 67.0895 72.5777 61.1105 56.9728 55.3576 29.9361 27.0579 26.9521 26.2247 25.9809 17.3311 14.5407 13.4797 13.4356 12.0351 9.8752 8.56444 7.80395 7.68994 6.71371 6.35888 5.16408 4.02658
threshold=1.0000000180025095e-35 1.0000000180025095e-35 1.0000000180025095e-35 0.069047619047619094 -0.064583333333333312 0.22649572649572652 -0.19999999999999998 0.12916666666666668 -0.44949494949494939 0.53589743589743599 0.60769230769230786 0.29285714285714298 60.663646683387682 0.034417388167388131 0.12916666666666668 0.53589743589743599 450.50000000000006 431.50000000000006 -0.33666666666666661 489.50000000000006 -0.10555555555555556 5.5000000000000009 46.000000000000007 494.50000000000006 0.13809523809523813 42.630018927952968 0.75961538461538469 3.5000000000000004 41.03009848710245 53.027408920467117
decision_type=2 2 2 2 2 2 2 2 2 2 2 2 2 2 2 2 2 2 2 2 2 2 2 2 2 2 2 2 2 2
left_child=1 5 3 12 7 11 10 17 -9 -8 -7 14 16 -14 -1 25 -2 -4 29 22 28 -20 -5 -13 -21 -3 -22 -27 -17 -6
right_child=2 15 4 19 18 6 9 8 -10 -11 -12 23 13 -15 -16 20 -18 -19 21 24 26 -23 -24 -25 -26 27 -28 -29 -30 -31
leaf_value=0.0075720214474302942 0.04198233688707504 -0.041045760993709331 0.022574260390974141 0.0035169497784681343 0.017215288887253787 0.0048079485856372907 -0.014130966917583058 0.046046835106041295 0.030969657533673506 -0.033268232091234716 -0.011920913936737151 -0.020345008662724273 0.073529304291399422 -0.0060236751050810004 -0.0042100437149233299 -0.040993503072893872 0.057872740298187134 0.056119674966851399 0.023945139585786042 0.025115490927502718 -0.044203477536498829 0.0074366642512807531 0.025056853363752504 -0.0029633045338834686 0.046581359511000398 -0.040636818543119048 -0.049575542047293281 -0.032833654791030696 -0.030613005186516402 -0.020741723339534113
leaf_weight=1057.5031830072403 335.75136376172304 1149.5182396061718 43.565404176712036 63.320678986608982 8.2315615043044073 984.70097779482603 2802.0439064614475 1265.9859715476632 2211.5011790990829 490.81925696507096 1050.9113283604383 374.40207270532846 346.32521164417267 10.758344277739523 895.06054567545652 482.50511642545462 1394.7321486920118 616.30195979773998 525.14332216978073 76.887048922479153 1775.3185959383845 142.39235050231218 365.28591392934322 88.684644125401974 113.14606936275959 411.50392422452569 1079.2000197693706 944.87311692535877 189.79463606327772 27.96478758007288
leaf_count=11858 1761 19565 256 502 64 10858 36628 7723 15922 7292 13440 5115 1682 57 10751 8065 7191 3562 4071 595 31067 1120 2857 1206 877 6945 19376 15861 3144 214
internal_value=-0.000347379 -0.0232445 0.0414459 0.0506362 0.036298 -0.00870844 -0.0119669 0.0392728 0.0364716 -0.0169942 -0.0038277 -0.00151688 0.0576401 0.0711084 0.00216914 -0.0418988 0.0548186 0.05395 0.0187704 0.0269389 -0.0447153 0.0204476 0.0219019 -0.0170406 0.0380994 -0.0379167 -0.0462529 -0.0352329 -0.0381203 -0.0117446
internal_weight=21324.1 13776.8 7547.29 2706.21 4841.09 7744.13 5328.48 4137.35 3477.49 3292.86 2035.61 2415.65 2087.57 357.084 1952.56 6032.71 1730.48 659.867 703.732 618.64 3526.82 667.536 428.607 463.087 190.033 2505.9 2854.52 1356.38 672.3 36.1963
internal_count=249625 201171 48454 15522 32932 97148 68218 27463 23645 43920 24298 28930 10691 1739 22609 104023 8952 3818 5469 4831 61652 5191 3359 6321 1472 42371 50443 22806 11209 278
is_linear=0
shrinkage=0.05


Tree=12
num_leaves=31
num_cat=0
split_feature=30 30 30 30 30 30 31 14 6 29 30 20 2 6 19 19 20 33 6 30 6 29 31 20 3 6 2 22 32 0
split_gain=7764.27 1194.35 849.822 128.039 92.2035 51.1588 50.7414 54.4263 37.8042 29.2315 25.4572 23.1087 22.3445 21.4854 19.2791 16.4357 16.0752 14.7862 14.1152 12.5638 12.3588 11.2601 10.1186 9.90824 9.62611 9.31802 9.20851 8.2065 4.8595 4.63741
threshold=0.22649572649572652 1.0000000180025095e-35 0.46410256410256417 0.63068181818181823 0.30384615384615393 0.14835164835164838 -0.2696969696969696 55.750000000000007 8.5000000000000018 0.12500000000000003 0.78174603174603186 0.43303571428571436 80.021379389051646 9.5000000000000018 0.29814814814814822 0.35067567567567576 0.27922077922077926 1.0000000180025095e-35 7.5000000000000009 0.40833333333333338 13.500000000000002 0.27500000000000008 0.42261904761904773 0.79285714285714304 36.500000000000007 9.5000000000000018 87.037472593183196 -0.023687720739915832 0.1396103896103896 23.524705563414575
decision_type=2 2 2 2 2 2 2 2 2 2 2 2 2 2 2 2 2 2 2 2 2 2 2 2 2 2 2 2 2 2
left_child=1 6 4 18 13 15 12 9 22 -8 29 -9 14 26 -1 16 -3 21 28 -10 -15 -7 -6 -19 -17 -14 -2 -20 -4 -5
right_child=2 5 3 10 8 17 7 11 19 -11 -12 -13 25 20 -16 24 -18 23 27 -21 -22 -23 -24 -25 -26 -27 -28 -29 -30 -31
leaf_value=0.037357897634739547 0.0071619652101174297 0.021516304671272954 -0.021308918781945789 -0.047205251344597132 -0.0035847606622551723 0.010053183929971614 0.051698528653866517 0.065076725346315548 -0.01620158190733478 0.036067718852857825 -0.048311890864806029 0.050089350330540905 0.078604584569349545 -0.0039614485776434767 0.055410139321522917 0.077122271417532681 0.013725182188710452 0.038504205048174589 -0.036721483198041222 -0.023408781342648323 -0.023656511153588054 -0.0011187143052640756 0.033086034669640517 -0.02091336601236583 0.027822316836254437 0.050028884592618644 0.053990838043431202 -0.029418065778004529 -0.00088772029437084914 -0.039610615936199321
leaf_weight=1003.1512121483684 341.81737522780895 1620.3972036540508 75.765972539782524 268.50356736406684 328.48097237199545 1589.7279521897435 1440.0459040477872 1114.052305445075 1546.9875034205616 395.02593851089478 2194.1594949960709 367.02827316522598 54.398771554231644 1271.394758194685 181.00325974822044 9.6542133763432485 1142.5444825217128 61.370556712150574 524.65196074545383 1020.3736145272851 84.204156018793583 261.66440266370773 18.939791806042194 7.1562470495700827 390.01402511447668 86.285630062222481 9.9074918925762159 1832.5547999702394 47.940113544464111 1932.9541666731238
leaf_count=5641 3804 12770 1108 4790 4149 17024 7555 5649 20658 2177 41009 1885 300 15369 1023 73 8985 466 8469 14721 1042 2816 243 54 2916 480 102 29338 671 34338
internal_value=-0.000352953 0.032533 -0.0281629 -0.0393064 -0.0115782 0.0157816 0.0508696 0.0542022 -0.0169818 0.048358 -0.0444408 0.0614024 0.0424895 -0.00234558 0.0401659 0.0196919 0.0183024 0.00933094 -0.0301931 -0.019076 -0.00520505 0.00847177 -0.00148206 0.0320158 0.0292152 0.0615904 0.00864456 -0.0310606 -0.0135057 -0.0405602
internal_weight=21222.2 9723.52 11498.6 6876.53 4622.11 5082.53 4640.99 3316.15 2914.78 1835.07 4395.62 1481.08 1324.84 1707.32 1184.15 3162.61 2762.94 1919.92 2480.91 2567.36 1355.6 1851.39 347.421 68.5268 399.668 140.684 351.725 2357.21 123.706 2201.46
internal_count=249625 69814 179811 119723 60088 45104 24710 17266 39771 9732 80137 7534 7444 20317 6664 24744 21755 20360 39586 35379 16411 19840 4392 520 2989 780 3906 37807 1779 39128
is_linear=0
shrinkage=0.05


Tree=13
num_leaves=31
num_cat=0
split_feature=33 34 21 21 32 32 21 23 0 31 32 22 21 21 15 2 19 6 31 14 15 25 1 32 21 2 18 32 16 21
split_gain=6571.61 1392.58 130.612 84.9347 81.5076 67.3754 61.7979 53.8448 52.3551 52.1417 40.4504 36.6549 32.4972 26.7587 23.5601 22.9689 24.6372 14.5067 14.1837 13.9137 12.4892 12.401 11.8791 9.48532 8.82328 6.32113 6.08557 5.58925 5.42181 4.95509
threshold=1.0000000180025095e-35 1.0000000180025095e-35 1.3430380669392401 0.5969055245723055 -0.19999999999999998 0.059027777777777797 -0.19069278898487368 0.53589743589743599 44.274232803542986 1.0000000180025095e-35 0.29285714285714298 1.9067293853995297 0.16184166714897835 1.9325709739947616 437.50000000000006 53.607164727495416 0.055050505050505051 10.500000000000002 -0.10555555555555556 53.250000000000007 443.50000000000006 1.0000000180025095e-35 60.438303680488993 -0.21428571428571419 -0.58772601465721575 68.21812218122183 -1.0000000180025095e-35 0.41287878787878796 1.0000000180025095e-35 0.94549948529466576
decision_type=2 2 2 2 2 2 2 2 2 2 2 2 2 2 2 2 2 2 2 2 2 2 2 2 2 2 2 2 2 2
left_child=1 3 8 4 6 13 -1 -6 15 11 17 -10 18 14 -4 20 -17 -5 24 -15 -2 -11 25 -20 -3 -7 -24 -14 -12 -29
right_child=2 12 5 10 7 22 -8 -9 9 21 28 -13 27 19 -16 16 -18 -19 23 -21 -22 -23 26 -25 -26 -27 -28 29 -30 -31
leaf_value=-0.010796304888938041 0.010297488716502434 -0.041030344608735544 0.026296000928854358 0.0089225102186652628 -0.013595661255524631 0.019832701440009145 0.0069395659308673476 -0.03192632661778471 0.037733572625473888 0.016060023818282945 -0.00870441877896975 0.067852777825145427 -0.029713129763687715 0.015032200715034595 0.049612167608629659 0.02716468653944322 0.042643887416422332 -0.00017463546538900058 -0.030386674463117838 0.064570719120504633 0.023848715141468035 0.033738503049712362 0.027667489387729671 -0.044395312496013334 -0.029070516004979303 0.039830629315152376 0.066547041412106156 -0.040111720687178831 -0.020643826163869637 -0.027822646891776555
leaf_weight=1182.077444717288 211.29671334475279 371.08946489915252 124.65333031117916 702.73713516443968 2892.9678855240345 259.84455613791943 838.55582053214312 465.67592419683933 2657.8240865543485 352.59928473085165 203.60120675340295 106.27268283069134 621.41219156235456 15.735349267721174 1155.3994462639093 1079.7930072247982 345.4370122551918 1158.6568545848131 136.86799708381295 375.58026060461998 953.94366840273142 140.9871366545558 20.715962007641792 3681.5863531641662 297.53632529452443 48.239584356546402 25.986557319760323 377.57140427827835 185.46900691837072 123.35261176899076
leaf_count=15173 1491 6679 632 7928 38706 1993 9107 7292 16047 2727 2857 571 10824 74 5638 7096 2196 13486 2363 1717 6476 1100 149 69804 5254 354 193 6925 2599 2174
internal_value=-0.000356906 -0.0218697 0.0358103 -0.00796255 -0.0113742 0.0467697 -0.00343371 -0.0161474 0.0320052 0.0362385 0.000191527 0.0389175 -0.0407801 0.0509806 0.0473678 0.0266675 0.0309472 0.0032601 -0.0426997 0.0626348 0.0214067 0.0211778 0.0268312 -0.0439026 -0.0357671 0.0230989 0.0503475 -0.03307 -0.0144471 -0.037157
internal_weight=21113.5 13239.2 7874.31 7629.74 5379.28 2026.16 2020.63 3358.64 5848.15 3257.68 2250.46 2764.1 5609.42 1671.37 1280.05 2590.47 1425.23 1861.39 4487.08 391.316 1165.24 493.586 354.787 3818.45 668.626 308.084 46.7025 1122.34 389.07 500.924
internal_count=249625 201171 48454 97148 70278 10750 24280 45998 37704 20445 26870 16618 104023 8061 6270 17259 9292 21414 84100 1791 7967 3827 2689 72167 11933 2347 342 19923 5456 9099
is_linear=0
shrinkage=0.05


Tree=14
num_leaves=31
num_cat=0
split_feature=30 30 30 30 30 1 6 30 2 31 13 30 6 2 17 23 19 6 4 16 6 30 19 21 21 0 31 30 21 2
split_gain=6412.5 946.228 794.94 124.877 73.6656 42.4407 41.221 32.26 31.2519 29.4869 27.6272 22.724 21.9669 16.0574 15.3077 14.7568 16.4531 13.7785 13.0368 12.3756 12.6294 11.1701 10.7654 10.6457 10.4748 9.89543 9.61934 8.28268 4.4568 4.43161
threshold=0.24038461538461542 1.0000000180025095e-35 0.51666666666666672 0.37980769230769235 0.72077922077922085 59.514373589429375 8.5000000000000018 0.16025641025641027 51.331814730447995 -0.25833333333333325 4.5000000000000009 0.30384615384615393 12.500000000000002 72.755462967067075 1.0000000180025095e-35 1.0000000180025095e-35 0.35067567567567576 7.5000000000000009 53.762842194082531 1.5000000000000002 13.500000000000002 0.63068181818181823 0.18350168350168353 0.28200094565320039 -0.099384289404543677 38.556593530796754 0.32291666666666674 0.78174603174603186 1.0123614316585023 65.958071278826012
decision_type=2 2 2 2 2 2 2 2 2 2 2 2 2 2 2 2 2 2 2 2 2 2 2 2 2 2 2 2 2 2
left_child=1 5 3 6 21 8 13 15 12 -10 14 -8 -1 -2 -7 25 -17 26 -12 20 -9 24 -21 -19 -4 -3 -5 29 -23 -6
right_child=2 7 4 17 27 10 11 19 9 -11 18 -13 -14 -15 -16 16 -18 23 -20 22 -22 28 -24 -25 -26 -27 -28 -29 -30 -31
leaf_value=0.037443143269098506 0.0025147039531482475 0.011766117477128975 -0.035746425365666086 -0.014165126938754342 -0.042078238098263013 0.066769527057056216 -0.0049578170854019691 0.012832149385584624 0.037451503141391333 0.048925788801635527 0.015035576419142063 -0.014688804514528761 0.010572880032267362 0.030715334664500927 0.044120498391114198 0.013449431486400616 0.025313473923804571 -0.025318877158525873 0.046782180423067588 0.00071047181535416988 -0.01100113773417407 -0.038283742583269928 0.016997555083573503 -0.018104415446110234 -0.026965457918771113 0.026559765463427074 0.016137123000568427 -0.047648171154008406 -0.015483501115037893 -0.01883676722838366
leaf_weight=1242.0899588540196 550.45592642575502 148.89825894683599 667.2084100432694 93.865171618759632 842.05948624014854 399.00382694602013 1301.2894822135568 1135.2560260370374 847.13132159411907 1822.9685110449791 38.083983540534973 1118.1220942549407 82.595929145812988 54.681289002299309 104.265281945467 2306.3546763435006 337.09267082810402 1450.6881976388395 302.21708968281746 614.97792878746986 57.481476522982121 1159.5712707452476 120.7096136584878 822.93259736895561 761.7811467051506 523.5164668187499 35.127267859876156 2021.7287037223577 24.457212474197149 24.185724966228008
leaf_count=6538 6453 1133 11649 1287 16348 1907 15897 11878 4563 9097 191 15026 439 619 505 17754 2441 22555 1470 6598 632 21870 1257 12301 12900 3925 473 41009 443 467
internal_value=-0.000358013 0.0283976 -0.0268895 -0.0133076 -0.0402833 0.0443431 -0.00654197 0.0136798 0.0421561 0.0453026 0.0546316 -0.00946123 0.0357808 0.00511768 0.0621839 0.0166726 0.0149732 -0.0218162 0.0432984 0.00852515 0.0116711 -0.03416 0.00340904 -0.0227189 -0.031091 0.0233136 -0.00581408 -0.045808 -0.0378305 -0.0414576
internal_weight=21010.8 10082.6 10928.2 5427.16 5500.99 4838.36 3024.55 5244.29 3994.79 2670.1 843.57 2419.41 1324.69 605.137 503.269 3315.86 2643.45 2402.61 340.301 1928.43 1192.74 2613.02 735.688 2273.62 1428.99 672.415 128.992 2887.97 1184.03 866.245
internal_count=249625 70328 179297 74611 104686 24710 37995 45618 20637 13660 4073 30923 6977 7072 2412 25253 20195 36616 1661 20365 12510 46862 7855 34856 24549 5058 1760 57824 22313 16815
is_linear=0
shrinkage=0.05


Tree=15
num_leaves=31
num_cat=0
split_feature=30 30 34 30 30 21 30 18 18 18 20 23 31 14 21 14 29 30 30 26 16 16 4 30 4 21 30 22 18 3
split_gain=5848.63 874.718 782.353 125.437 78.3928 49.1802 33.0574 29.1197 44.0957 24.9516 23.2954 20.6325 18.4392 18.2521 14.9752 14.9511 11.3674 11.3406 10.5303 9.90483 9.77942 8.31205 7.72421 7.1163 7.08046 6.67708 5.11957 6.44711 4.56741 3.45483
threshold=0.22649572649572652 1.0000000180025095e-35 1.0000000180025095e-35 0.39230769230769241 0.70714285714285718 1.7261432583934158 0.14835164835164838 0.69615384615384623 -1.0000000180025095e-35 0.28801843317972359 0.29285714285714287 0.17424242424242428 0.095454545454545472 54.250000000000007 -0.040112541372437957 55.750000000000007 0.37500000000000006 0.30384615384615393 0.60769230769230786 0.17424242424242428 1.0000000180025095e-35 1.5000000000000002 62.180531851794363 0.62019230769230782 60.939544033193165 0.36317629581848154 0.78174603174603186 1.1063505787075842 0.26201372997711675 58.500000000000007
decision_type=2 2 2 2 2 2 2 2 2 2 2 2 2 2 2 2 2 2 2 2 2 2 2 2 2 2 2 2 2 2
left_child=1 5 3 11 18 7 12 8 -1 21 15 20 13 -3 29 -7 -14 -13 25 -11 -2 -8 -9 -16 -12 -4 28 -28 -6 -5
right_child=2 6 4 14 26 10 9 22 -10 19 24 17 16 -15 23 -17 -18 -19 -20 -21 -22 -23 -24 -25 -26 -27 27 -29 -30 -31
leaf_value=0.043792031262192672 0.0063068709498888334 0.0081687306953500943 -0.032423854269595834 -0.029381523421819478 -0.042855673137566913 0.049184556118518442 0.0080623553240441077 0.050792294176194519 0.033228962649194803 0.032190963214004019 0.032163157264689983 -0.0051869712969636536 0.027174036149952781 0.016849015058022065 -0.016976785197810349 0.067860724795024613 -0.012921716761508779 -0.012236326367667832 -0.037209783034819643 0.011255901904685266 -0.0050613738888721721 0.00088426492769144542 0.074176256640042015 -0.029596165591849813 0.049791761062982665 -0.024114429123060954 -0.047372459561142888 0.017775077615443415 -0.020468926079415327 -0.02310289256752671
leaf_weight=2144.1564348340034 406.25742968916893 876.20353803783655 1052.6505688652396 475.81862231716514 847.34018595889211 201.94347354769707 1062.2126682549715 121.6786839812994 1889.884937427938 126.7137675434351 127.2640618532896 1229.8342264816165 403.75665311515331 2003.3543464392424 1307.7488910928369 288.38701298832893 17.750917464494705 1073.4954325780272 1048.4070746861398 105.90658006817102 352.02976828813553 652.90675146132708 64.703657001256943 124.96855754777789 125.50827133655548 343.3602469265461 1899.8029366284609 3.2214367873966685 27.072007097303867 495.16401250660419
leaf_count=10753 4989 6609 19318 7589 17061 904 11017 607 9894 1308 574 14854 3045 14931 19253 1272 138 14468 20592 1107 4333 6942 316 2060 552 6116 40286 65 538 7837
internal_value=-0.000214655 0.0268419 -0.0260696 -0.0128413 -0.0399087 0.0418886 0.0126068 0.0397716 0.0388541 0.00743033 0.0538355 -0.006124 0.0156564 0.0142132 -0.021389 0.0602948 0.0254471 -0.00847847 -0.0333381 0.0227701 0.00102294 0.00533484 0.0592894 -0.0181009 0.0410977 -0.0304024 -0.0456755 -0.0472503 -0.0421925 -0.0262119
internal_weight=20899.5 10212.3 10687.2 5465.32 5221.85 4963.53 5248.81 4220.42 4034.04 1947.74 743.103 3061.62 3301.07 2879.56 2403.7 490.33 421.508 2303.33 2444.42 232.62 758.287 1715.12 186.382 1432.72 252.772 1396.01 2777.44 1903.02 874.412 970.983
internal_count=249328 69969 179359 75383 103976 24872 45097 21570 20647 20374 3302 38644 24723 21540 36739 2176 3183 29322 46026 2415 9322 17959 923 21313 1126 25434 57950 40351 17599 15426
is_linear=0
shrinkage=0.05


Tree=16
num_leaves=31
num_cat=0
split_feature=33 34 21 21 32 32 6 32 6 21 0 21 15 21 22 32 22 21 21 1 32 29 21 2 15 29 6 2 3 21
split_gain=4892.18 1263.91 118.207 74.3995 64.9591 60.9067 42.4617 41.861 41.5978 41.2017 39.0461 36.3723 30.1629 28.36 21.7806 21.5458 21.1702 20.6631 19.4289 17.7477 16.4071 16.0186 14.7956 11.0514 9.28872 8.57833 7.6382 6.55902 4.49693 3.38783
threshold=1.0000000180025095e-35 1.0000000180025095e-35 1.0729231686112364 0.60650215996789181 0.069047619047619094 -0.19999999999999998 11.500000000000002 -0.45804195804195796 10.500000000000002 0.28200094565320039 43.408179533654369 -0.12008687793232936 497.50000000000006 0.16184166714897835 0.85808315659416434 0.29285714285714298 1.3377473800894011 -0.34234464857865438 -0.16109963780093103 59.678882705239509 -0.1818181818181818 0.075000000000000025 0.95828372974012577 42.516282225237454 523.50000000000011 0.12500000000000003 6.5000000000000009 63.421951061205952 92.500000000000014 -1.0441151132278559
decision_type=2 2 2 2 2 2 2 2 2 2 2 2 2 2 2 2 2 2 2 2 2 2 2 2 2 2 2 2 2 2
left_child=1 3 7 5 6 11 10 8 16 -7 -4 -1 14 20 -9 22 -2 -14 -10 25 29 -8 -5 -22 -21 -6 -17 28 -15 -3
right_child=2 13 4 15 19 9 21 12 18 -11 -12 -13 17 27 -16 26 -18 -19 -20 24 23 -23 -24 -25 -26 -27 -28 -29 -30 -31
leaf_value=-0.0086037434744524587 0.037323778270987512 -0.034084351314670934 0.033584151693271738 -0.00071630383226373997 0.022284841949192252 -0.018676565701576314 0.0362018810211793 0.017294885196568195 0.011250892950827386 -0.0070484672319764746 0.049419050654420961 0.0052597636806420451 -0.040093757088245217 -0.033063904786140436 0.028993056103602022 0.031941942637742769 0.067498399759241101 0.030833528323933795 0.029617818258167002 0.035869214595399969 -0.045228334658947454 0.021867497401440741 0.0084172559631722887 -0.039515583221663382 0.093258875422584209 0.0079440073135782618 -0.011436330421877694 -0.012605844531486988 -0.001382918167189768 -0.022731008142940743
leaf_weight=1222.4722559377551 697.64128865301609 233.30950940400362 581.32203917205334 1075.3395445719361 307.8694439008832 2046.3163887001574 534.72914530336857 2301.88062299788 241.71605927497149 1218.7912180796266 1265.9550811424851 770.11500591784716 9.5133786126971227 975.30331540480256 486.08459171652794 9.4452612586319429 65.020044595003128 868.91625742614269 366.18119166046381 83.054421722888947 1743.2457553744316 320.77186173945665 752.28014195710421 1920.0438851565123 7.4717026054859152 161.7515302747488 357.19649689644575 44.979000527411699 11.75477162376046 109.92371479794383
leaf_count=15950 3765 4518 2946 12606 2205 30348 2652 15158 1535 15996 6032 8250 68 18958 2973 136 318 5526 1889 579 37225 1677 8275 40148 51 1221 5196 842 223 2062
internal_value=-0.000220505 -0.0199915 0.0295312 -0.00691045 0.0369541 -0.0101375 0.0401713 0.0247152 0.0321919 -0.0143411 0.0444595 -0.00324318 0.021911 -0.039332 0.0193459 0.000820747 0.0399879 0.030015 0.0223533 0.0213777 -0.0412532 0.0308648 0.00304304 -0.0422471 0.0416278 0.0173834 -0.0102214 -0.0318359 -0.0326935 -0.0305395
internal_weight=20790.4 12490.5 8299.88 7451.96 3262.93 5257.69 2702.78 5036.95 1370.56 3265.11 1847.28 1992.59 3666.39 5038.56 2787.97 2194.26 762.661 878.43 607.897 560.147 4006.52 855.501 1827.62 3663.29 90.5261 469.621 366.642 1032.04 987.058 343.233
internal_count=249328 200733 48595 96757 17363 70544 13307 31232 7507 46344 8978 24200 23725 103976 18131 26213 4083 5594 3424 4056 83953 4329 20881 77373 630 3426 5332 20023 19181 6580
is_linear=0
shrinkage=0.05


Tree=17
num_leaves=31
num_cat=0
split_feature=33 34 23 32 23 32 22 22 32 18 20 23 1 32 16 32 1 2 23 2 27 20 6 15 12 2 15 32 15 26
split_gain=4412.65 1213.25 93.3255 93.6056 51.4013 48.0457 44.0287 41.0009 39.1721 34.0799 29.0569 24.8144 22.9316 22.5257 20.8186 15.3819 14.8722 14.2223 13.2885 12.3105 10.6257 10.4138 9.09983 8.52451 9.4815 7.22206 6.72033 5.4946 4.70099 3.90658
threshold=1.0000000180025095e-35 1.0000000180025095e-35 1.0000000180025095e-35 0.069047619047619094 0.17424242424242428 -0.064583333333333312 0.68946989856303598 1.4191405833963644 -0.16025641025641021 0.70294117647058829 0.30384615384615393 0.34523809523809529 60.90623868785611 0.22902097902097904 -2.4999999999999996 -0.1818181818181818 60.034566356785795 43.411116512720803 0.67708333333333337 39.348909657320881 0.021286075036075078 0.27922077922077926 8.5000000000000018 441.50000000000006 7.5000000000000009 64.539126016260184 526.50000000000011 0.44949494949494956 427.50000000000006 1.5470085470085473
decision_type=2 2 2 2 2 2 2 2 2 2 2 2 2 2 2 2 2 2 2 2 2 2 2 2 2 2 2 2 2 2
left_child=1 4 3 10 13 7 8 9 -6 -4 12 25 -2 17 -12 -13 21 -1 -17 -8 -9 -5 -15 28 -25 27 -18 -3 -7 -27
right_child=2 11 5 16 6 23 19 20 -10 -11 14 15 -14 22 -16 18 26 -19 -20 -21 -22 -23 -24 24 -26 29 -28 -29 -30 -31
leaf_value=-0.0041168225068090331 0.040971367218229152 -0.027720172486744056 0.023506763285756582 0.020916934940340498 -0.0051754231108946946 0.010179631673931322 -0.013346766664384602 0.045023830182398673 -0.013955621879594158 0.051399931589154291 0.044329680887348274 -0.029842453141866232 0.05873059887457438 0.0032489580402873123 0.026383389736028447 -0.038743608743772008 0.031452435585002624 0.0083604724771117883 -0.045027533484721799 0.010468494162801205 0.018232698855679619 0.0072630393956716931 -0.010207398409554471 0.011482642990309534 0.027317639069791705 -0.012770874149221914 0.077253522762132168 -0.036464425306583149 -0.0093535212384869091 0.041799134749147669
leaf_weight=312.81101103127003 1308.0222320780158 440.26495118439198 4167.991126909852 335.93434257805347 2221.0329379104078 57.765853948891163 63.205808874219656 318.78181171417236 2979.4572757557034 112.58735291659832 232.83059598505497 334.103659812361 220.12091147899628 168.93540034815669 567.57765343785286 2191.7732719071209 88.902235195040703 835.81714196503162 1511.2079732678831 347.81572079658508 44.742018103599548 243.55018358677626 479.17228560894728 529.54590209573507 116.1006093621254 29.050756726413969 8.7598811686038953 354.51047733798623 63.727570198476315 2.6723279282450667
leaf_count=3488 6034 8542 25087 2409 27808 427 818 1680 42423 610 1070 6581 957 2215 2610 46694 606 9127 34135 4204 243 1759 6674 3753 825 552 57 7421 468 51
internal_value=-0.000223918 -0.0193474 0.0276564 0.0347311 -0.00660652 0.02372 -0.00896291 0.0256366 -0.0102084 0.0242534 0.0394929 -0.038748 0.0435695 0.000750992 0.0316588 -0.0403798 0.0183153 0.0049575 -0.0413209 0.00677061 0.0417992 0.0152094 -0.00669257 0.0120925 0.0143757 -0.030732 0.0363527 -0.0316678 -1.80904e-05 -0.00688426
internal_weight=20688.8 12271.8 8416.94 3005.7 7408.25 5411.24 5611.51 4644.1 5200.49 4280.58 2328.55 4863.58 1528.14 1796.74 800.408 4037.08 677.147 1148.63 3702.98 411.022 363.524 579.485 648.108 767.14 645.647 826.499 97.6621 794.775 121.493 31.7231
internal_count=249328 200733 48595 15502 96757 33093 75253 27620 70231 25697 10671 103976 6991 21504 3680 87410 4831 12615 80829 5022 1923 4168 8889 5473 4578 16566 663 15963 895 603
is_linear=0
shrinkage=0.05


Tree=18
num_leaves=31
num_cat=0
split_feature=30 30 30 30 30 15 30 31 2 22 15 13 4 20 20 2 21 21 0 2 21 16 3 30 22 18 3 32 21 20
split_gain=4485.6 899.915 422.131 79.1827 54.2469 52.1559 48.6458 46.1938 26.4951 24.0439 20.7656 22.4064 20.3798 19.1167 16.5547 14.2152 15.5002 13.8594 13.1346 12.4766 11.1872 10.4141 9.73292 6.0575 6.71986 5.27803 5.18041 5.17179 4.78192 8.02003
threshold=0.30384615384615393 1.0000000180025095e-35 0.57738095238095244 0.22649572649572652 0.72077922077922085 472.50000000000006 0.40833333333333338 -1.0000000180025095e-35 66.033222591362133 1.647504291492855 452.50000000000006 5.5000000000000009 63.932354612097477 0.43303571428571436 0.57738095238095244 39.230170607602524 -0.040112541372437957 0.30081153914077335 42.882769976982168 87.037472593183196 0.62611586575772937 -14.499999999999998 81.500000000000014 0.78174603174603186 0.9468278862667886 0.26201372997711675 71.500000000000014 -0.19999999999999998 1.0000000180025095e-35 0.080128205128205135
decision_type=2 2 2 2 2 2 2 2 2 2 2 2 2 2 2 2 2 2 2 2 2 2 2 2 2 2 2 2 2 2
left_child=1 5 6 10 28 9 17 8 -7 13 18 -12 -11 -1 -9 27 -17 22 -3 20 -5 -19 -2 25 -25 -6 -21 -8 -4 -30
right_child=2 3 4 19 23 7 15 14 -10 12 11 -13 -14 -15 -16 16 -18 21 -20 26 -22 -23 -24 24 -26 -27 -28 -29 29 -31
leaf_value=0.030064074627449679 -0.012555479755384799 -0.00011487795952185584 -0.034779744735406563 -0.0053793595531150644 -0.041119874167550891 0.030291739151066584 -0.016596534500599901 0.050151032771330956 0.042635781075292485 0.036740118638332202 0.01432292460422183 0.0056358604151357647 0.07515418737927243 0.018584512806035125 0.028808912328881716 -0.02507290802693149 -0.015894798028965627 0.053639612735729383 0.0096995133234578246 0.054688090541362679 0.0033819738124292818 -0.0059470851814483749 -0.027799105537023774 -0.046309770280313717 0.012633277327064214 -0.015911864235706556 0 -0.031330226959591777 -0.037054868006121802 -0.024538957797749814
leaf_weight=1505.2351974323392 832.26308422535658 647.40615767985582 1168.7917243205011 1119.0198336020112 723.80947326496243 1259.9119412750006 75.392784129828215 907.9229699075222 686.36522589623928 178.58906604349613 3034.2741624563932 987.85354348272085 44.302083536982536 490.12713770568371 107.527896925807 785.67469883710146 1147.7316220253706 6.4003658108413211 716.68052065372467 12.581856086850168 538.48679725825787 725.00524727627635 120.77128652110696 1711.751192022115 4.3319033756852141 23.776526790112257 6.2957975119352332 426.5058960840106 206.48842881247401 386.92810643464327
leaf_count=7295 11823 5689 24593 13747 16303 6204 1294 4123 3329 813 25006 8391 193 2424 491 13679 18807 87 6011 137 6345 9986 1714 40777 94 517 69 7397 4195 7795
internal_value=-0.000225769 0.0190426 -0.028491 0.00743033 -0.0395945 0.0348699 -0.0170934 0.0392296 0.0346672 0.0290317 0.0103836 0.0121925 0.0446992 0.0272575 0.0479266 -0.0216146 -0.0196381 -0.0105449 0.00504119 -0.00205608 -0.00252966 -0.0053463 -0.0145196 -0.0444088 -0.0461508 -0.0403472 0.0373093 -0.0291643 -0.0328395 -0.0289575
internal_weight=20588.2 12242.6 8345.62 7062.6 4225.88 5179.98 4119.74 2961.73 1946.28 2218.25 5386.21 4022.13 222.891 1995.36 1015.45 2435.31 1933.41 1684.44 1364.09 1676.38 1657.51 731.406 953.034 2463.67 1716.08 747.586 18.8777 501.899 1762.21 593.417
internal_count=249328 90267 159061 65395 94274 24872 64787 14147 9533 10725 45097 33397 1006 9719 4614 41177 32486 23610 11700 20298 20092 10073 13537 57691 40871 16820 206 8691 36583 11990
is_linear=0
shrinkage=0.05


Tree=19
num_leaves=31
num_cat=0
split_feature=30 30 30 30 30 15 30 6 31 6 2 19 2 6 27 6 15 20 6 2 23 29 19 21 21 30 19 30 20 0
split_gain=4101.33 795.209 413.023 70.6344 54.7594 45.9988 45.9366 36.7104 30.7366 30.4801 25.8516 20.8493 20.8413 19.7126 19.3189 18.3354 17.7584 14.8567 11.5733 10.7488 10.3673 10.3411 9.72603 7.07464 7.06513 6.23338 4.9417 4.80767 5.5064 3.55941
threshold=0.30384615384615393 1.0000000180025095e-35 0.57738095238095244 0.22649572649572652 0.72077922077922085 481.50000000000006 0.40833333333333338 9.5000000000000018 -0.13809523809523808 10.500000000000002 66.033222591362133 0.35067567567567576 61.239444219614199 7.5000000000000009 0.00077550130181713872 9.5000000000000018 451.50000000000006 0.44949494949494956 7.5000000000000009 39.230170607602524 0.87083333333333346 1.0000000180025095e-35 -0.1982142857142857 0.31034065196911559 -0.040112541372437957 0.78174603174603186 4.9761904761904772 0.63068181818181823 0.22649572649572652 41.229348726339516
decision_type=2 2 2 2 2 2 2 2 2 2 2 2 2 2 2 2 2 2 2 2 2 2 2 2 2 2 2 2 2 2
left_child=1 5 6 11 27 9 7 18 10 17 -7 16 -11 24 -10 20 -3 -1 -2 -15 -5 -13 -17 -9 -8 26 -6 28 -4 -29
right_child=2 3 4 15 25 8 13 23 14 12 -12 21 -14 19 -16 22 -18 -19 -20 -21 -22 -23 -24 -25 -26 -27 -28 29 -30 -31
leaf_value=0.035918694816935763 0.026435159340558075 0.0032609105250268875 -0.034408036349871919 0.0067552453997095328 -0.040039953695115184 0.026571350337219621 -0.017481811869561267 -0.018359034316629132 0.04623150631243849 0.017486956655039125 0.041835863362498893 0.0080696257696144212 0.030719339761648562 -0.029181078151022617 0.027802704638423822 -0.017212120670572966 0.010373833718179987 0.024496962453290791 -0.0010113937961379466 -0.02046947283191201 0.061279969762389079 0.022191679551617161 -0.0031822393443441616 -0.010459891337287685 0.001656419859329536 -0.045782469383959884 0.025295591028197242 -0.036882516474596581 -0.024996041973524702 -0.03023761072946915
leaf_weight=1166.045313924551 40.928251698613167 1163.297469727695 277.49768091738224 343.04567451030016 718.51651095971465 778.70851410925388 78.181907590478659 661.02521606534719 1014.2453456521034 789.08575414121151 443.6863684207201 183.69830169528723 487.23880921304226 459.20577915012836 173.73213261365891 137.32051907479763 3614.4590559005737 394.88225509226322 454.33668211102486 1730.5341950207949 7.9972474649548522 464.15307465940714 1185.1250203214586 513.19553371891379 121.90626956149936 1645.1895734257996 2.1856177523732176 637.24426679685712 422.28481294959784 373.96152301132679
leaf_count=5470 527 10033 5656 3809 16769 3829 1262 9785 4561 3842 2139 1405 2318 8228 808 1701 30005 1905 6005 29925 90 3654 14698 7293 1762 40871 51 14176 8545 8206
internal_value=-0.000228054 0.0179335 -0.0277878 0.00702117 -0.0390292 0.0326909 -0.0164897 -0.0101107 0.0377922 0.0283436 0.0321456 0.0097908 0.0225624 -0.0209377 0.0435663 -0.00195574 0.00864406 0.03305 0.00129539 -0.0223111 0.00818214 0.0182137 -0.00465476 -0.0149228 -0.00584648 -0.0439798 -0.0398001 -0.0321591 -0.0287793 -0.0344624
internal_weight=20482.9 12346.7 8136.19 7099.1 4076.88 5247.62 4059.31 1669.49 2410.37 2837.25 1222.39 5425.61 1276.32 2389.83 1187.98 1673.49 4777.76 1560.93 495.265 2189.74 351.043 647.851 1322.45 1174.22 200.088 2365.89 720.702 1710.99 699.782 1011.21
internal_count=249328 90267 159061 65395 94274 24872 64787 23610 11337 13535 5968 45097 6160 41177 5369 20298 40038 7375 6532 38153 3899 5059 16399 17078 3024 57691 16820 36583 14201 22382
is_linear=0
shrinkage=0.05


Tree=20
num_leaves=31
num_cat=0
split_feature=30 30 30 30 30 30 22 18 18 6 6 6 6 0 15 6 21 16 15 21 5 2 2 30 26 31 6 4 2 24
split_gain=3790.63 685.743 406.675 63.6557 50.6888 46.3832 43.6322 32.8174 40.6442 31.9357 22.4175 21.6141 17.8726 17.8436 17.2824 16.9516 15.2336 14.8311 12.7322 12.2419 10.7026 9.69484 8.40605 8.24245 7.43925 7.14291 6.20532 4.74105 4.29149 4.09613
threshold=0.30384615384615393 1.0000000180025095e-35 0.57738095238095244 0.22649572649572652 0.72077922077922085 0.40833333333333338 1.7889747093090849 0.74166666666666681 -1.0000000180025095e-35 9.5000000000000018 7.5000000000000009 7.5000000000000009 9.5000000000000018 37.468334481853162 531.50000000000011 7.5000000000000009 -0.049686680658455225 7.5000000000000009 442.50000000000006 0.47392417237275636 1540.0000000000002 46.28530728530729 65.42729471569713 0.79285714285714304 0.29285714285714293 -0.36038961038961032 8.5000000000000018 56.978370678679532 48.042079989890702 0.11805555555555557
decision_type=2 2 2 2 2 2 2 2 2 2 2 2 2 2 2 2 2 2 2 2 2 2 2 2 2 2 2 2 2 2
left_child=1 6 5 10 27 9 7 8 -1 15 17 16 21 -12 18 -2 -7 -3 -5 -9 -13 -8 -14 26 -16 -11 -6 28 -4 -25
right_child=2 3 4 14 23 11 12 19 -10 25 13 20 22 -15 24 -17 -18 -19 -20 -21 -22 -23 -24 29 -26 -27 -28 -29 -30 -31
leaf_value=0.032781841124720962 0.030684194109326469 0.028013661806013914 -0.035208145202153603 -0.011217796243256122 -0.027446745490257413 -0.022328457990193475 0.017431191772522839 0.02139607870042011 0.02337078557901159 -0.023521234510415018 0.0038194769982099822 -0.023711713725198241 0.033621943030172116 0.010475747062955773 0.042216844777032754 -0.002028671231665273 0.0059086125308978679 -0.014356676720979889 -0.00034426090273899151 0.053774027633287348 -0.014215169484508423 0.068780272565351963 0.052219424576228149 -0.004341921585366503 0.004376861439238368 -0.012582571998980319 -0.040952831478785152 -0.024237383401205459 -0.029263469154261413 -0.045887637441691762
leaf_weight=2444.5326360166073 42.295529887080193 224.03733807057142 915.93301540613174 339.57371361553669 112.1241478100419 76.212974436581135 11.312565103173254 37.697292611002922 2203.9738542735577 178.37388180196285 1370.7849091887474 1786.9021858721972 208.6769739985466 3836.199917845428 29.849343523383141 462.26672235876322 124.02007784321904 21.970737010240555 1290.2944555729628 179.56569901108742 366.08076765015721 98.704894706606865 96.250428661704063 6.4434968829154959 23.427539840340614 1000.5919797830284 610.33704894408584 193.40411349758506 548.85489861667156 1546.5491509102285
leaf_count=11310 533 1559 20324 4141 2709 1249 50 179 10631 2635 11715 31642 921 31534 362 6117 1791 152 15649 799 6586 421 417 151 286 14725 14815 4193 11962 40097
internal_value=-0.000358465 0.0169143 -0.0272667 0.00680393 -0.0387081 -0.0161094 0.0305723 0.0292296 0.0283269 -0.00975824 0.00942729 -0.020645 0.0461971 0.00872545 -0.0016927 0.000758903 -0.00487172 0.0241666 -0.00261825 0.0483028 -0.0221066 0.0637499 0.0396601 -0.0435772 0.0260567 -0.0142603 -0.0389045 -0.0320011 -0.0330056 -0.0457214
internal_weight=20387.2 12416.9 7970.39 7136.14 3933.65 4036.74 5280.71 4865.77 4648.51 1683.53 5452.99 2353.22 414.945 5206.98 1683.15 504.562 200.233 246.008 1629.87 217.263 2152.98 110.017 304.927 2275.45 53.2769 1178.97 722.461 1658.19 1464.79 1552.99
internal_count=249655 90126 159529 65398 94251 65278 24728 22919 21941 24010 44960 41268 1809 43249 20438 6650 3040 1711 19790 978 38228 471 1338 57772 648 17360 17524 36479 32286 40248
is_linear=0
shrinkage=0.05


Tree=21
num_leaves=31
num_cat=0
split_feature=30 30 30 30 30 30 22 1 6 18 4 6 6 13 6 15 6 6 4 0 5 3 19 30 2 31 6 4 2 24
split_gain=3468.32 608.694 396.936 56.8503 51.0985 43.6869 38.8987 31.8889 29.4275 23.2701 23.1866 20.3509 19.8165 18.6041 15.7463 15.3649 14.9573 12.7921 12.3394 11.6669 10.1958 9.48042 8.92362 8.44861 7.39158 6.74526 6.20701 4.65687 4.25572 4.04644
threshold=0.30384615384615393 1.0000000180025095e-35 0.57738095238095244 0.22649572649572652 0.72077922077922085 0.40833333333333338 1.7889747093090849 59.514373589429375 9.5000000000000018 -1.0000000180025095e-35 61.178529009575513 7.5000000000000009 9.5000000000000018 5.5000000000000009 9.5000000000000018 531.50000000000011 7.5000000000000009 13.500000000000002 49.922142439881512 38.44875370754545 1540.0000000000002 48.500000000000007 0.047449362340585152 0.79285714285714304 65.42729471569713 -0.36038961038961032 8.5000000000000018 56.978370678679532 48.042079989890702 0.11805555555555557
decision_type=2 2 2 2 2 2 2 2 2 2 2 2 2 2 2 2 2 2 2 2 2 2 2 2 2 2 2 2 2 2
left_child=1 6 5 12 27 8 7 9 16 -1 -9 18 19 -14 21 17 -2 -5 -7 -3 -13 -8 -17 26 -16 -10 -6 28 -4 -25
right_child=2 3 4 15 23 11 14 10 25 -11 -12 20 13 -15 24 22 -18 -19 -20 -21 -22 -23 -24 29 -26 -27 -28 -29 -30 -31
leaf_value=0.029402673875378562 0.028455036182532485 0.0066861155166770955 -0.034561638824614042 -0.001504811156534747 -0.026760973805390238 -0.020228390279704522 0.018658131736563107 0.029108233172550808 -0.022815132795522119 0.021809697610949908 0.046344873225787842 -0.023013730668315906 0.0088400794268447373 0.00049927918889104814 0.031646498757593053 0.013616694705404907 -0.001930802979603948 -0.022461257390958861 0.0051722347616711111 0.016739354900654171 -0.013680530813686868 0.065248353549181501 0.064187898051432143 -0.0041685983204511265 0.048999270015255392 -0.012086421893301657 -0.040431735707191177 -0.023552354262042805 -0.028566635136787234 -0.045525827314949335
leaf_weight=2072.13568367064 43.377757668495178 404.84772321581841 887.16780547425151 1550.9159011915326 109.34471048042178 76.929499264806509 13.735920593142508 468.58183528482914 174.82236092165112 2026.0414735525846 349.87672889232635 1750.025289312005 3198.5362449064851 846.92826344817877 210.62810787558556 44.09348851442337 461.48436369746923 75.482384502887726 122.46130214631557 1038.4953600019217 361.52555571869016 97.784596785902977 10.31075908243656 6.4180763661861411 97.479566112160683 989.90279732272029 587.87789994105697 189.21508537977934 534.52395335584879 1482.5296560712159
leaf_count=9552 533 3220 20324 18812 2709 1213 59 2116 2635 9730 1521 31642 26572 7267 921 526 6117 978 1827 7901 6586 412 122 151 417 14725 14815 4193 11962 40097
internal_value=-0.000353146 0.0159513 -0.026569 0.00643228 -0.0381342 -0.0155287 0.0287363 0.0274746 -0.00935185 0.0256563 0.0365303 -0.0199832 0.00889586 0.0070957 0.043407 -0.00161029 0.000721154 -0.00249369 -0.00465499 0.0139295 -0.0214254 0.0597711 0.0242768 -0.0431366 0.0372935 -0.0137193 -0.0383363 -0.0313198 -0.0323328 -0.0453538
internal_weight=20283.5 12505.9 7777.61 7169.61 3797.08 3980.53 5336.26 4916.64 1669.59 4098.18 818.459 2310.94 5488.81 4045.46 419.628 1680.8 504.862 1626.4 199.391 1443.34 2111.55 111.521 54.4042 2186.17 308.108 1164.73 697.223 1610.91 1421.69 1488.95
internal_count=249655 90126 159529 65398 94251 65278 24728 22919 24010 19282 3637 41268 44960 33839 1809 20438 6650 19790 3040 11121 38228 471 648 57772 1338 17360 17524 36479 32286 40248
is_linear=0
shrinkage=0.05


Tree=22
num_leaves=31
num_cat=0
split_feature=30 30 30 30 30 30 4 6 6 22 21 6 1 6 14 19 6 21 16 19 2 30 6 13 22 21 6 21 2 6
split_gain=3173.89 541.335 386.846 51.4447 50.7994 41.0885 37.0493 28.8321 27.0961 24.7896 21.6541 19.1407 18.7716 18.6554 17.1767 14.7851 13.9373 13.7523 12.9778 11.0583 9.85555 8.65033 8.42178 8.36715 7.94177 7.11099 6.20055 4.88128 7.34406 5.79506
threshold=0.30384615384615393 1.0000000180025095e-35 0.57738095238095244 0.72077922077922085 0.22649572649572652 0.40833333333333338 64.44608926721024 10.500000000000002 9.5000000000000018 1.9067293853995297 0.88198924525309763 7.5000000000000009 52.825814988545879 7.5000000000000009 54.750000000000007 0.75219298245614052 9.5000000000000018 -0.049686680658455225 7.5000000000000009 -0.16794871794871793 39.230170607602524 0.79285714285714304 12.500000000000002 5.5000000000000009 0.80427277192432989 0.34578063180247282 8.5000000000000018 0.34578063180247282 67.749519533083586 9.5000000000000018
decision_type=2 2 2 2 2 2 2 2 2 2 2 2 2 2 2 2 2 2 2 2 2 2 2 2 2 2 2 2 2 2
left_child=1 6 5 27 13 8 7 9 15 -1 -9 17 23 18 -15 -2 24 -7 -3 -18 -13 26 -14 -8 -6 -10 -5 29 -29 -4
right_child=2 4 3 21 16 11 12 10 25 -11 -12 20 22 14 -16 -17 19 -19 -20 -21 -22 -23 -24 -25 -26 -27 -28 28 -30 -31
leaf_value=0.027820054103729959 -0.0015881422863242721 0.025184470251447273 -0.025756355247728225 -0.026077417680936063 0.0048416444997441349 -0.021359518847756078 0.022244665990471341 0.015215507415457286 -0.016551926917595019 0.050276589437604213 0.025443172275927434 -0.027525332059727965 0.045671236562602517 0.0037930357530545885 0.0098174079842293857 0.032627420546752176 -0.017148229706569366 0.0056788936063707426 -0.014369559792823949 -0.0023226295288226125 -0.018944672276681174 -0.04498070918098783 0.020950285379399271 0.044189531219443641 0.031153296080645307 -0.0085305031207250758 -0.03990315239929796 -0.02561359946057928 0.024114256800976792 -0.033922491866030489
leaf_weight=2374.0875344276428 472.31719195842743 230.21633227914572 312.37218052893877 106.69481912255287 329.03741054236889 74.138053897768259 220.39448483288288 917.15079370141029 666.99232251942158 131.09587751328945 1218.388168618083 433.20816195011139 428.20430763065815 1803.7473824396729 3466.725546695292 32.823528580367565 140.09731806814671 124.46245840191841 21.975416168570518 1178.7801404595375 1638.8381670676172 1427.8088592886925 41.008037686347961 56.246895134449005 30.620953127741814 484.16360273584723 566.44136190786958 269.12867243215442 6.7824237905442706 977.51379168406129
leaf_count=10869 6221 1559 6775 2709 3646 1249 1030 4460 10275 553 5492 8258 1879 15044 28205 429 1765 1791 152 14699 29970 40248 181 264 328 7085 14815 6019 141 23544
internal_value=-0.000347114 0.015053 -0.0258747 -0.0375534 0.00608296 -0.0149617 0.0270406 0.0253627 -0.00895939 0.0290168 0.0210622 -0.0193319 0.0374262 0.00839795 0.00775771 0.000685342 -0.00153122 -0.004446 0.0216749 -0.00391306 -0.0207535 -0.042689 0.0435705 0.0268676 0.00717582 -0.0131929 -0.0377611 -0.0306365 -0.0242905 -0.0319703
internal_weight=20181.5 12587.8 7593.69 3666.74 7201.2 3926.94 5386.58 4640.72 1656.3 2505.18 2135.54 2270.65 745.854 5522.66 5270.47 505.141 1678.54 198.601 252.192 1318.88 2072.05 2100.95 469.212 276.641 359.658 1151.16 673.136 1565.8 275.911 1289.89
internal_count=249655 90126 159529 94251 65398 65278 24728 21374 24010 11422 9952 41268 3354 44960 43249 6650 20438 3040 1711 16464 38228 57772 2060 1294 3974 17360 17524 36479 6160 30319
is_linear=0
shrinkage=0.05


Tree=23
num_leaves=31
num_cat=0
split_feature=30 30 30 30 30 30 21 19 6 2 6 6 13 4 0 15 6 21 6 26 0 2 30 27 2 2 6 21 2 6
split_gain=2904.59 482.148 376.431 51.72 45.4265 38.598 33.8888 26.9183 24.9329 21.3737 17.9762 16.6711 16.6239 15.4173 16.9174 14.163 13.1579 12.655 11.9428 11.7557 10.2367 9.46933 8.84605 8.67962 8.64374 6.82238 6.18562 4.79292 6.83344 5.72067
threshold=0.30384615384615393 1.0000000180025095e-35 0.57738095238095244 0.72077922077922085 0.22649572649572652 0.40833333333333338 1.6279778000769103 0.42451298701298706 9.5000000000000018 51.331814730447995 7.5000000000000009 9.5000000000000018 5.5000000000000009 64.44608926721024 34.726900946192764 442.50000000000006 7.5000000000000009 -0.049686680658455225 13.500000000000002 0.63961038961038974 38.44875370754545 39.230170607602524 0.79285714285714304 0.085773906499712907 30.453627180899911 48.388569099893033 8.5000000000000018 0.34578063180247282 67.749519533083586 9.5000000000000018
decision_type=2 2 2 2 2 2 2 2 2 2 2 2 2 2 2 2 2 2 2 2 2 2 2 2 2 2 2 2 2 2
left_child=1 6 5 27 11 8 7 9 16 -1 17 20 -13 19 -15 24 -2 -7 -17 -8 -3 -12 26 -9 -6 -10 -5 29 -29 -4
right_child=2 4 3 22 15 10 13 23 25 -11 21 12 -14 14 -16 18 -18 -19 -20 -21 -22 -23 -24 -25 -26 -27 -28 28 -30 -31
leaf_value=0.016702056984213322 0.026324935653465359 0.0057573735582959005 -0.025061720480109469 -0.025396701615201578 0.050431160432614731 -0.02069295227176636 0.033160585732466052 0.036312291661905999 -0.016500737812915056 0.024676086482658881 -0.02681532181176921 0.0079205454472303007 6.5322886530903344e-05 -0.0071610225345001962 0.047715082580561979 0.0019296056322142031 -0.0018651359461421921 0.0053708016718504795 -0.019632468691852159 0.017279627066983487 0.015109290629979556 -0.018309550488142021 -0.044601296940792998 0.013851338436676176 -0.011660821495828724 -0.0086994793468796097 -0.039366885063446821 -0.024922333077175323 0.022620980258100172 -0.0332691849485445
leaf_weight=1257.5559453070164 44.458593659102917 409.6170215010643 305.19152242317796 104.16874761879444 4.702993467450141 72.767567321658134 613.8337377756834 475.75465476512909 578.67261466011405 2631.8436958789825 422.74066975712776 3235.6556660085917 852.16290725767612 14.492146223783491 239.20186556875706 1274.1790414080024 460.95780484378338 125.06353535875678 66.60666685551405 150.11450566351414 1057.2889055013657 1611.6417532451451 1369.4465277493 49.918453797698021 330.85621779412031 559.5366985835135 545.98461680486798 262.95078973472118 6.9307172000408164 947.65800536051393
leaf_count=5971 533 3220 6775 2709 60 1249 2557 2199 8896 12087 8258 26572 7267 62 985 15420 6117 1791 877 629 7901 29970 40248 238 4081 8464 14815 6019 141 23544
internal_value=-0.000340768 0.0142125 -0.0251843 -0.0369656 0.00575383 -0.0144087 0.0254671 0.0235551 -0.00858026 0.0221041 -0.0186923 0.00793072 0.00628465 0.033726 0.0445449 -0.00145695 0.000651797 -0.00424685 0.000840899 0.0300732 0.012507 -0.0200918 -0.0422338 0.0342192 -0.0106285 -0.0126811 -0.0371787 -0.0299519 -0.0236039 -0.0312954
internal_weight=20082 12663.8 7418.17 3542.33 7231.07 3875.84 5432.72 4415.07 1643.63 3889.4 2232.21 5554.72 4087.82 1017.64 253.694 1676.34 505.416 197.831 1340.79 763.948 1466.91 2034.38 2019.6 525.673 335.559 1138.21 650.153 1522.73 269.882 1252.85
internal_count=249655 90126 159529 94251 65398 65278 24728 20495 24010 18058 41268 44960 33839 4233 1047 20438 6650 3040 16297 3186 11121 38228 57772 2437 4141 17360 17524 36479 6160 30319
is_linear=0
shrinkage=0.05


Tree=24
num_leaves=31
num_cat=0
split_feature=30 30 30 30 30 1 6 30 22 4 29 16 21 14 29 2 2 15 21 6 2 6 2 0 6 16 21 27 22 30
split_gain=2658.22 430.045 367.2 59.6557 40.6459 32.9088 31.7445 30.2452 26.8454 23.4531 26.3028 19.1956 18.7035 16.4191 20.0032 16.3589 14.1936 13.6534 12.9351 12.4835 11.0086 10.919 8.97278 7.62487 7.38708 6.90696 6.54944 5.87625 3.3304 2.00194
threshold=0.30384615384615393 1.0000000180025095e-35 0.63068181818181823 0.44949494949494956 0.22649572649572652 59.514373589429375 8.5000000000000018 0.79285714285714304 1.9067293853995297 61.178529009575513 0.27500000000000008 1.0000000180025095e-35 0.25519186633470592 54.750000000000007 0.32500000000000001 51.90611760718523 44.597138602964989 531.50000000000011 0.68710100301853549 11.500000000000002 82.628025760604046 13.500000000000002 47.813346228239858 22.824194482618832 8.5000000000000018 -1.0000000180025095e-35 0.98529401615032886 -0.10681818181818177 0.9468278862667886 0.89444444444444449
decision_type=2 2 2 2 2 2 2 2 2 2 2 2 2 2 2 2 2 2 2 2 2 2 2 2 2 2 2 2 2 2
left_child=1 5 3 6 13 8 18 24 11 20 -11 -1 23 19 -15 -10 -14 21 -2 -3 -7 -6 -8 -5 27 -19 -26 -4 29 -9
right_child=2 4 7 12 17 9 22 28 15 10 -12 -13 16 14 -16 -17 -18 25 -20 -21 -22 -23 -24 -25 26 -27 -28 -29 -30 -31
leaf_value=0.024445280531767116 -0.00034457563159623686 0.0065999590534712542 0.0048477696818490989 -0.036227338039545497 -0.0013293789610724291 0.022795794131650761 -0.015911891099181456 -0.042396000550872559 0.019080315570420558 0.044163106877107061 -0.013157672977920205 0.017689698716587664 -0.022351494994525142 0.010587788780512563 -0.0024154331632904348 0.047181162556957035 -0.0075279785057966141 -0.00038969969253353114 0.025202301421137826 -0.0019560365929045219 0.046622356698875517 -0.021039398048183236 -0.0090857253209533327 -0.023464588605091721 -0.035565344974644607 0.03586221395426905 -0.010327809271844669 -0.02667626260349731 0.0023230704045096836 -0.047262264490209038
leaf_weight=2268.3172739893198 284.55339429154992 1263.7461996600032 15.591811209917067 133.37098273262382 1546.2604759037495 473.84677417576313 939.06401842832565 795.45838222280145 78.786816224455833 401.23214575648308 20.49730284512043 2009.6968477666378 302.78728671371937 3356.6159399226308 323.29049874097109 167.2938302308321 351.11050542443991 20.165615543723106 58.897641159594059 641.36473779380322 54.95388862490654 72.686310082674026 1010.9963479340076 1355.5690536163747 1288.053030628711 35.203895010054111 27.813276302069426 169.20901047438383 3.532392341643571 514.76269854977727
leaf_count=10402 3798 10214 384 2836 18812 2082 15049 24272 342 1692 90 9180 6104 26612 2724 702 6730 238 724 5410 238 978 15735 28469 34650 410 684 4118 87 15889
internal_value=-0.000334121 0.0134256 -0.0244985 -0.0155288 0.00544398 0.0240054 -0.00991355 -0.038625 0.022214 0.0324942 0.0413408 0.0212777 -0.0215292 0.00749232 0.00944371 0.0383181 -0.0144233 -0.00138607 0.00408233 0.0037174 0.0253647 -0.00222983 -0.0123819 -0.0246347 -0.0337014 0.0227978 -0.0350439 -0.0239779 -0.0442153 -0.0443463
internal_weight=19984.7 12734 7250.77 4436.35 7259.33 5474.62 2293.51 2814.42 4524.09 950.53 421.729 4278.01 2142.84 5585.02 3679.91 246.081 653.898 1674.32 343.451 1905.11 528.801 1618.95 1950.06 1488.94 1500.67 55.3695 1315.87 184.801 1313.75 1310.22
internal_count=249655 90126 159529 79445 65398 24728 35306 80084 20626 4102 1782 19582 44139 44960 29336 1044 12834 20438 4522 15624 2320 19790 30784 31305 39836 648 35334 4502 40248 40161
is_linear=0
shrinkage=0.05


Tree=25
num_leaves=31
num_cat=0
split_feature=30 30 30 30 30 21 30 19 21 27 19 16 20 18 19 21 2 1 1 2 3 0 20 27 2 18 21 4 24 3
split_gain=2424.99 433.904 281.005 81.0489 38.8354 38.055 26.9 23.2269 21.9522 20.4004 18.2346 16.8391 13.4561 13.2429 13.1413 12.523 11.5813 11.3012 10.8703 9.02114 10.9064 7.88741 7.79807 7.18515 6.5043 6.05052 5.85749 4.77003 2.79356 2.49239
threshold=0.34523809523809529 1.0000000180025095e-35 0.63068181818181823 0.19375000000000003 0.44949494949494956 1.7261432583934158 0.78174603174603186 0.42451298701298706 0.64710048899558215 1.0000000180025095e-35 0.12701612903225809 -1.4999999999999998 0.29285714285714287 0.32071428571428579 0.29814814814814822 0.71682378280979508 42.010610079575606 57.420757810943051 57.205663379493366 67.749519533083586 81.500000000000014 29.856398503386103 0.19375000000000003 -0.070450537117203713 41.79084073820917 -1.0000000180025095e-35 0.9992384597262991 57.609505499030981 0.10555555555555557 48.500000000000007
decision_type=2 2 2 2 2 2 2 2 2 2 2 2 2 2 2 2 2 2 2 2 2 2 2 2 2 2 2 2 2 2
left_child=1 5 4 11 19 7 24 9 10 -1 -5 18 17 -10 -13 16 -6 -7 -3 21 -21 -2 -17 -9 26 -14 -4 -26 29 -8
right_child=2 3 6 8 15 12 28 23 13 -11 -12 14 25 -15 -16 22 -18 -19 -20 20 -22 -23 -24 -25 27 -27 -28 -29 -30 -31
leaf_value=0.020916622869721086 -0.020651991797544941 0.01030673542749146 -0.038321393773311743 -0.0067016048664020186 -0.028267604432116046 0.031035638856167048 0.02908032765027288 0.047148576303775114 0.0021702366464148781 0.011867155472094154 0.0056151312974479645 0.0047589840738585919 0.030926936130595273 0.021235895720056124 0.014309223867131519 -0.020912348682998422 -0.01978677503527344 0.046402759959742058 0.020473464197465433 0.0087140511659162048 -0.030243493957904377 -0.01025872672808642 -0.0011813935534329852 0.02802742544944424 -0.031528767103490118 0.015910682327906107 -0.0027460574558562244 -0.017287375673121379 -0.043552332038819058 -0.029028964652135961
leaf_weight=3369.7013213336468 218.08348040282726 1332.855109103024 560.57559832558036 1880.8262241967022 605.78023412078619 332.93466039001942 2.0445259511470786 57.34854431450367 967.76086293905973 773.27078585326672 356.37226508930326 2626.2956666871905 134.10777966678143 99.716561879962683 417.87395460903645 85.349219515919685 1289.493442684412 203.87870812416077 330.60797987878323 104.59261896088719 20.633106779307127 1186.2003698796034 120.89603790640831 514.22354266047478 788.16540943458676 146.36059015989304 12.28752753138542 69.650739055126905 1280.2792504336685 3.6394251212477684
leaf_count=15238 3575 10217 15542 23304 13211 1376 54 263 11203 3625 4358 20218 551 1109 2985 1711 26870 824 2420 1633 323 19058 2362 2326 21412 608 305 1840 40877 94
internal_value=-0.000433071 0.011518 -0.0259319 0.00408016 -0.0168224 0.0222874 -0.038095 0.0205487 -0.00192043 0.0192321 -0.00473576 0.00829304 0.0322736 0.00397411 0.00607586 -0.0212372 -0.0225136 0.0369567 0.0123414 -0.0107433 0.00206676 -0.0118899 -0.00943217 0.0300337 -0.0332998 0.0231929 -0.0375732 -0.0303997 -0.0433958 -0.00615533
internal_weight=19891.8 13544.1 6347.67 8012.31 3631.03 5531.83 2716.64 4714.54 3304.68 4142.97 2237.2 4707.63 817.282 1067.48 3044.17 2101.52 1895.27 536.813 1663.46 1529.51 125.226 1404.28 206.245 571.572 1430.68 280.468 572.863 857.816 1285.96 5.68395
internal_count=249492 100625 148867 75814 68743 24811 80124 21452 39974 18863 27662 35840 3359 12312 23203 44154 40081 2200 12637 24589 1956 22633 4073 2589 39099 1159 15847 23252 41025 148
is_linear=0
shrinkage=0.05


Tree=26
num_leaves=31
num_cat=0
split_feature=30 30 30 30 6 21 6 30 31 16 34 21 19 4 16 4 15 4 31 15 4 2 30 1 2 6 21 15 24 4
split_gain=2227.7 431.894 220.413 92.8155 47.1886 34.9593 27.9697 27.1907 26.4149 23.4227 20.5109 15.8354 15.1725 13.7681 13.625 13.2144 12.9594 14.7426 9.01812 8.43384 8.31737 6.72923 7.28253 6.5945 6.48169 8.09132 5.69414 3.23214 2.76351 2.32339
threshold=0.37980769230769235 1.0000000180025095e-35 0.63068181818181823 0.19375000000000003 10.500000000000002 1.9325709739947616 11.500000000000002 0.78174603174603186 -1.0000000180025095e-35 1.5000000000000002 1.0000000180025095e-35 0.86917827354259303 0.37715517241379315 62.47592320100253 -3.4999999999999996 64.176370297959366 486.50000000000006 53.664683986144865 0.22649572649572652 495.50000000000006 30.813380756861179 42.630018927952968 0.42261904761904767 53.166099240964321 41.79084073820917 8.5000000000000018 0.9992384597262991 487.50000000000006 0.10555555555555557 46.989845115191706
decision_type=2 2 2 2 2 2 2 2 2 2 2 2 2 2 2 2 2 2 2 2 2 2 2 2 2 2 2 2 2 2
left_child=1 5 10 12 9 6 8 24 -1 -5 16 -6 14 19 -3 -8 18 -18 -2 -7 -14 27 -23 -15 26 -26 -4 -12 29 -9
right_child=2 3 7 4 11 13 15 28 -10 -11 21 -13 20 23 -16 -17 17 -19 -20 -21 -22 22 -24 -25 25 -27 -28 -29 -30 -31
leaf_value=0.01877349987962508 -0.019773908099471431 0.012160536827149539 -0.037756349920345322 0.0064820653951248369 -0.010949156911875514 0.020438136881493374 0.012143429084211873 0.019465367507740902 0.027562226149290998 -0.0044729426208925315 -0.030976390187306298 0.0014179409441367405 0.042005299842301905 0.02574197580958637 0.0052687619404335039 0.025389482826561251 -0.014096212558990595 0.0033712070518495322 -0.011083896483850513 0.040117365057132218 0.014119341373431635 0.027384778817474555 -0.020619941947277287 0.050098554879716532 -0.017047173530275885 -0.031710443401978962 -0.0026253438922311436 -0.020231711678474769 -0.04314317168471319 -0.03576131360993539
leaf_weight=2185.5470174252987 994.85950758680701 922.76946568489075 541.03026408329606 1318.0068938359618 1426.3789491429925 177.24924935400486 1285.2619471997023 3.1537439823150626 1428.0772210657597 772.99200200289488 311.9770699813962 315.06688806414604 27.727881260216236 39.87993386387825 3253.9817348122597 222.2375241369009 339.50398094952106 186.08261807635427 438.02506951242685 82.772290304303169 529.30879440903664 7.0854843705892554 661.33078643679619 145.19568635523319 114.52931641787291 719.55215757712722 12.256671611219643 105.34486864879727 1229.1091090422124 2.4897032715380192
leaf_count=9948 17917 6993 15542 15026 19820 729 5882 84 6162 8886 7612 4046 198 164 24925 1002 6108 3255 7772 337 3724 145 15584 587 2917 20335 305 2546 40877 64
internal_value=-0.000420816 0.0101989 -0.0269055 0.00315155 -0.00263146 0.0210411 0.0198629 -0.0375328 0.0222548 0.00242967 -0.0177408 -0.00870927 0.00783406 0.0345112 0.0067951 0.014115 -0.0146633 -0.00790776 -0.0171305 0.0268514 0.0155892 -0.0232689 -0.0200635 0.0450436 -0.0326523 -0.0297258 -0.0369933 -0.0283309 -0.0429817 -0.00586175
internal_weight=19798.8 14132.5 5666.33 8566.23 3832.44 5566.22 5121.12 2622.12 3613.62 2091 3044.21 1741.45 4733.79 445.097 4176.75 1507.5 1958.47 525.587 1432.88 260.022 557.037 1085.74 668.416 185.076 1387.37 834.081 553.287 417.322 1234.75 5.64345
internal_count=249492 108429 141063 83618 47778 24811 22994 80124 16110 23912 60939 23866 35840 1817 31918 6884 35052 9363 25689 1066 3922 25887 15729 751 39099 23252 15847 10158 41025 148
is_linear=0
shrinkage=0.05


Tree=27
num_leaves=31
num_cat=0
split_feature=34 33 21 21 21 19 6 31 18 15 18 16 15 31 15 31 15 0 31 21 23 0 0 21 4 31 15 21 18 19
split_gain=1808.5 607.99 59.7834 45.937 30.1211 29.8884 27.7029 25.504 25.6523 23.3068 18.7044 16.7125 16.3219 13.5779 12.9607 12.1221 11.3441 10.5803 9.68313 8.23281 11.1626 8.14435 7.22191 6.85471 6.35526 6.06084 5.33505 5.20437 4.95482 1.76287
threshold=1.0000000180025095e-35 1.0000000180025095e-35 1.0729231686112364 0.64710048899558215 -0.089117929253274192 0.13794926004228333 10.500000000000002 -0.17424242424242423 0.36939571150097467 455.50000000000006 -1.0000000180025095e-35 -1.4999999999999998 435.50000000000006 -0.22649572649572647 441.50000000000006 -0.37980769230769224 460.50000000000006 29.523167361111749 0.29285714285714298 0.36317629581848154 0.45804195804195807 23.850438716301252 37.69700405330186 0.33654907741870754 56.785240422156043 -0.16025641025641021 481.50000000000006 -1.1440863928144303 0.10380747126436783 2.7089947089947093
decision_type=2 2 2 2 2 2 2 2 2 2 2 2 2 2 2 2 2 2 2 2 2 2 2 2 2 2 2 2 2 2
left_child=1 3 6 5 13 11 10 12 -9 -8 -3 -1 -4 22 17 23 -7 -5 -16 25 -21 29 28 26 -23 -17 -6 -24 -2 -15
right_child=4 2 7 14 15 16 9 8 -10 -11 -12 -13 -14 21 18 19 -18 -19 -20 20 -22 24 27 -25 -26 -27 -28 -29 -30 -31
leaf_value=-0.0043605375800507794 -0.03144815260318428 0.019024364544350195 -0.011308902459212877 -0.029455816439514799 0.10222807611344337 -0.0057183782763073811 -0.0007045709437372489 0.020691664053448942 0.034192285461809739 0.010676047560463095 0.011144014851264494 -0.010904497870789689 0.015369358033147266 -0.046063538377780384 0.0049538983846734502 -0.018408485774964532 0.0066809532543566919 -0.0032783828614816445 -0.010367004111112188 -0.022923940289411492 0.055549430376198076 -0.037195618459995125 -0.028441217664239689 -0.024507380401828843 -0.024365026879056069 -0.031937358407640996 0.0034296509258547334 0.0188712031210998 -0.004829145759377945 -0.013674497393687316
